{"model_data": {"model": "SimpleRNN", "input_size": 2, "skip": 1, "output_size": 1, "unit_type": "LSTM", "num_layers": 1, "hidden_size": 32, "bias_fl": true}, "state_dict": {"rec.weight_ih_l0": [[-0.026286093518137932, 0.5248048305511475], [0.07467017322778702, 0.8450517654418945], [0.10811691731214523, 0.06442949920892715], [-0.12237567454576492, -0.3834686875343323], [-0.0013515111058950424, 0.0006404378218576312], [-0.0032844278030097485, 0.00808023102581501], [0.04367562383413315, -0.8687962293624878], [-7.090765575412661e-05, -0.0019814821425825357], [0.4362936317920685, 0.014424125663936138], [0.14280462265014648, -0.3996571898460388], [-0.00134919467382133, 0.002701380755752325], [0.039392441511154175, 0.11685489118099213], [-0.001205839216709137, -0.0025910933036357164], [-0.09105708450078964, -0.3689729571342468], [-0.00031322831637226045, -0.0061805336736142635], [-0.0011558097321540117, -0.002362464787438512], [-0.004802619107067585, 0.01706836000084877], [0.23852598667144775, -0.3178064525127411], [0.02315475605428219, -0.9668822288513184], [-0.0041630868799984455, 0.016355780884623528], [0.3825571537017822, -0.23967134952545166], [0.0774010568857193, -0.29733651876449585], [0.1599886119365692, 0.2842916250228882], [0.10248839110136032, -0.22258694469928741], [-0.0016689576441422105, -0.0012686516856774688], [-0.039639875292778015, -0.09123571962118149], [-0.20840343832969666, 0.9136388897895813], [-0.07787404954433441, -0.36867955327033997], [0.006619967520236969, 0.18231381475925446], [-0.19331032037734985, -0.366280198097229], [-0.1139773279428482, -0.049467992037534714], [0.16390934586524963, 0.09063892811536789], [-0.14665162563323975, 0.2897951304912567], [0.11752137541770935, 0.3899869918823242], [-0.060287922620773315, 0.09044001996517181], [-0.10185257345438004, 0.7925985455513], [-0.0014345471281558275, 0.0005371901788748801], [-0.003827210981398821, 0.008094855584204197], [-0.16142109036445618, 1.3651419878005981], [-8.069178147707134e-05, -0.001790871610864997], [0.1541277915239334, 0.03212770074605942], [-0.12842467427253723, 0.5081954598426819], [-0.0012897186679765582, 0.002615025732666254], [0.018870772793889046, 0.06396026164293289], [-0.0012040199944749475, -0.0022486820816993713], [0.044806599617004395, 0.16889959573745728], [-0.00029971569892950356, -0.005661162082105875], [-0.0012123354244977236, -0.0020060513634234667], [-0.0051588197238743305, 0.017133036628365517], [-0.06505370885133743, 1.1223504543304443], [0.008955043740570545, 0.9288697242736816], [-0.0049591222777962685, 0.015963364392518997], [0.25596633553504944, -0.004452725872397423], [0.21761269867420197, -0.07740265130996704], [-0.09401608258485794, 0.07573037594556808], [0.12090631574392319, -0.04513052850961685], [-0.0017479181988164783, -0.0009510866948403418], [-0.22803591191768646, 0.14137285947799683], [-0.011712273582816124, 0.575864315032959], [0.08383914083242416, 0.31751948595046997], [0.04687100648880005, 0.6440316438674927], [-0.22387370467185974, 0.17100203037261963], [-0.10990262776613235, -0.1033237874507904], [-0.006608942523598671, 0.2888031303882599], [-0.630844235420227, 0.06549665331840515], [-2.453218936920166, -0.6929036378860474], [-0.4526159167289734, -0.05107611045241356], [0.4575200080871582, -0.13545866310596466], [-0.015958566218614578, 0.014955305494368076], [0.01640176586806774, -0.02153431624174118], [0.01981602981686592, -0.05086343735456467], [0.009183433838188648, -0.0016772077651694417], [-0.8016700744628906, 0.19792164862155914], [-0.18282048404216766, 0.2234267145395279], [0.014446943067014217, -0.014059950597584248], [-0.15585316717624664, 0.5052976012229919], [0.0191267728805542, -0.006461292039602995], [0.1507198065519333, 0.3175291419029236], [-0.016439003869891167, 0.003824505489319563], [0.014004583470523357, -0.006989882793277502], [-0.0075739468447864056, 0.026844589039683342], [-0.2479306012392044, 0.007514169439673424], [-0.5149493217468262, 0.003370164427906275], [0.01216459646821022, -0.028908103704452515], [0.2640116512775421, 0.052755698561668396], [-0.06928370147943497, -0.13050414621829987], [0.6033955216407776, 0.14249418675899506], [-0.3592204451560974, 0.028335414826869965], [-0.011168986558914185, 0.016977408900856972], [0.11361120641231537, 0.5351647138595581], [-0.2488681823015213, 0.11458507925271988], [0.5397779941558838, -0.10322657227516174], [0.03629057854413986, 0.014228260144591331], [0.4200425446033478, 0.40919673442840576], [0.23331016302108765, -0.014763213694095612], [-0.08269678801298141, 0.09203177690505981], [-0.047911565750837326, 0.678191065788269], [0.19226211309432983, 0.5711816549301147], [0.050774041563272476, 0.22686275839805603], [-0.14734874665737152, 0.33314013481140137], [-0.001307974336668849, 0.000866504036821425], [-0.003012278350070119, 0.008258920162916183], [0.25731179118156433, 0.24050404131412506], [-5.972009603283368e-05, -0.001981820212677121], [0.5182400345802307, 0.16844502091407776], [0.1893659234046936, 0.5605963468551636], [-0.0010892944410443306, 0.0029057760257273912], [-0.7548984885215759, 0.18526685237884521], [-0.0012949533993378282, -0.0025415753480046988], [-0.22700141370296478, 0.3357153832912445], [-0.00031857972498983145, -0.006154009606689215], [-0.0012915224069729447, -0.0023009839933365583], [-0.0035921495873481035, 0.01717127487063408], [-0.5860752463340759, -0.3957170248031616], [0.3894418776035309, 0.10809558629989624], [-0.0037753600627183914, 0.01652952842414379], [0.3085133135318756, 0.017673490568995476], [0.17064473032951355, 0.14410915970802307], [0.12648773193359375, 0.3063983917236328], [0.43760356307029724, -0.09747721254825592], [-0.0016508807893842459, -0.0011685272911563516], [-0.21944163739681244, -0.12017688155174255], [-0.13215255737304688, -0.010193937458097935], [-0.11080651730298996, 0.2838728427886963], [-0.005533761344850063, -0.6348075866699219], [-0.40693607926368713, -0.4868478775024414], [-0.08365637809038162, -0.033468347042798996], [-0.06216536834836006, 0.5705649256706238]], "rec.weight_hh_l0": [[-0.0015377320814877748, 0.021808158606290817, -0.10035857558250427, -0.12323877960443497, 0.010022623464465141, -0.018631847575306892, -0.08525345474481583, 0.0014121130807325244, -0.040021028369665146, -0.007873684167861938, -0.008649040944874287, -0.007645650301128626, -0.0010186396539211273, -0.026440346613526344, 0.000602818327024579, -0.0021300814114511013, 0.027689727023243904, 0.01601850613951683, -0.2714378237724304, -0.029377654194831848, -0.007973343133926392, -0.0654262825846672, 0.05081769451498985, -0.06853960454463959, 0.010420816019177437, -0.018353939056396484, -0.016966940835118294, -0.2677338719367981, -0.3681141138076782, 0.008420789614319801, 0.06490254402160645, 0.012031330727040768], [-0.5017496943473816, -0.22738288342952728, -0.23304517567157745, -0.22261781990528107, 0.010230431333184242, -0.012862593866884708, -0.002317806240171194, 0.00011794968304457143, 0.30525586009025574, 0.3348914384841919, -0.012518590316176414, 0.4787755310535431, -0.014184652827680111, -0.08441692590713501, 0.008804290555417538, -0.010073055513203144, 0.007903636433184147, -0.5472674369812012, 0.10451982915401459, -0.011453005485236645, 0.15067602694034576, -0.21387872099876404, -0.07075069099664688, 0.21352502703666687, 0.01103043183684349, 0.07058757543563843, -0.1629123091697693, -0.034823376685380936, -0.18869666755199432, 0.06338246911764145, 0.12202304601669312, 0.1317204087972641], [-0.07565804570913315, -0.020831944420933723, -0.01914099231362343, -0.02899501845240593, -0.007798456586897373, 0.009878680109977722, -0.12447676807641983, -0.0010505461832508445, 0.1418459713459015, -0.071656733751297, 0.009579814970493317, 0.0724964439868927, -0.00030867403256706893, 0.0832628533244133, -0.0018269335851073265, 0.008058884181082249, -0.019320566207170486, -0.13377806544303894, 0.006860284134745598, 0.01516671758145094, -0.006217304151505232, -0.13108336925506592, -0.1623413860797882, 0.0684737116098404, -0.005194354802370071, 0.09548406302928925, 0.2862650156021118, -0.014464105479419231, 0.1405346840620041, -0.14237555861473083, -0.025469770655035973, 0.11321525275707245], [-0.10957518965005875, 0.03150544688105583, -0.09987085312604904, -0.3068277835845947, -0.008943311870098114, 0.012187796644866467, -0.27304595708847046, -0.0029063790570944548, -0.1633872091770172, -0.13511869311332703, 0.011206178925931454, 0.009013102389872074, 0.005492248106747866, -0.21975986659526825, -0.00046739037497900426, 0.003068692749366164, -0.014249200001358986, 0.43694737553596497, 0.03907259553670883, 0.021868502721190453, 0.7835205793380737, 0.31663674116134644, -0.06003192067146301, 0.08275506645441055, -0.008187126368284225, -0.0678153783082962, 0.023021288216114044, -0.0005538617842830718, 0.6879629492759705, 0.0406649187207222, -0.051125381141901016, 0.03040347248315811], [-0.013191364705562592, -0.001802285318262875, -0.006362689193338156, 0.006797027308493853, -0.00217939424328506, 0.0028996397741138935, 0.0069521162658929825, -0.00016083747323136777, -0.0012364491121843457, -0.007679133675992489, 0.0018696479965001345, 0.013023233972489834, 0.0003928727237507701, 0.016125107184052467, 3.937863584724255e-05, 0.0008573560626246035, -0.0029010793659836054, 0.0007941696094349027, 0.007649250794202089, 0.0036833747290074825, 0.0028043140191584826, -0.004519638605415821, -0.008396602235734463, -0.0015985334757715464, -0.002065056236460805, 0.0017939426470547915, -0.001299222931265831, 0.01915701851248741, 0.004694459028542042, -0.0014651167439296842, -0.000759170507080853, 0.0037322090938687325], [-0.014351166784763336, -0.003164780791848898, -0.011848729103803635, 0.002016516635194421, -0.0025285242591053247, 0.002213740721344948, 0.004837937653064728, -0.0002324317320017144, -0.0015547865768894553, -0.004694189410656691, 0.0023585138842463493, 0.021996958181262016, 0.0007076328038237989, 0.016947688534855843, -0.00012866723409388214, 0.0014211524976417422, -0.0010180885437875986, -0.005995669402182102, 0.0012672884622588754, 0.0020235879346728325, 0.0036621373146772385, -0.011103078722953796, -0.013487731106579304, -0.004665758460760117, -0.002163706813007593, 0.008611124940216541, -0.007489221636205912, 0.01469188928604126, -0.0006145358202047646, 0.0008723221835680306, -0.0010422166669741273, 0.005847215186804533], [0.6754761934280396, -0.2448418289422989, 0.09153496474027634, -0.389823853969574, -0.014949063770473003, 0.019790219143033028, -0.2443021833896637, -0.0032449853606522083, -0.11099641770124435, -0.08248648047447205, 0.021409353241324425, -0.020134905353188515, 0.016431283205747604, -0.11909932643175125, 0.002183883683755994, 0.008471363224089146, -0.034701280295848846, 0.20012764632701874, 0.012535546906292439, 0.024488547816872597, -0.2977491021156311, 0.9669682383537292, -0.17582209408283234, -0.1237022876739502, -0.015138468705117702, -0.793224573135376, -0.2973598837852478, -0.037002068012952805, 0.735767126083374, 0.14763835072517395, 0.617104172706604, 0.11284398287534714], [0.00011380389332771301, 1.238837830896955e-05, 0.00038694002432748675, 0.00020588086044881493, -2.307716385985259e-05, 3.596779424697161e-05, 0.00014185882173478603, -3.845152150461217e-06, 0.00023359365877695382, 8.150495705194771e-05, 1.7902026229421608e-05, -2.422617399133742e-05, -5.062527634436265e-06, 9.536764991935343e-05, 9.991173101298045e-06, 5.9424742460123525e-08, -4.363353946246207e-05, 0.00014528406609315425, 0.001237913966178894, 5.361836520023644e-05, -3.8163678254932165e-05, 6.455317634390667e-05, 2.7204228899790905e-05, 0.00011704544158419594, -2.3078428057488054e-05, 1.800506652216427e-06, -3.4146083635278046e-05, 0.0009451504447497427, 0.0008455211645923555, -5.362143156162347e-07, -0.00014088151510804892, -1.6978119674604386e-05], [0.0883948877453804, -0.057882312685251236, -0.0045602284371852875, -0.08808446675539017, 0.007018880918622017, -0.014237632043659687, -0.2428024858236313, -0.0031499762553721666, 0.04990376532077789, 0.03475862741470337, -0.004275847226381302, -0.21505983173847198, 0.00610916456207633, -0.08436679095029831, -0.0024827064480632544, -0.0012305317213758826, 0.0145193412899971, 0.20072980225086212, -0.25286081433296204, -0.017286822199821472, -0.039376839995384216, 0.0843832939863205, 0.10810904204845428, -0.22853010892868042, 0.007086664903908968, -0.07552904635667801, 0.0907268300652504, -0.11324620991945267, -0.040842872112989426, -0.09169946610927582, -0.04770243540406227, 0.06143731251358986], [-0.06529907137155533, -0.09256365895271301, 0.11616354435682297, -0.2825058102607727, -0.007459642365574837, 0.00575376907363534, -0.14446046948432922, 0.0014152147341519594, -0.3455757796764374, -0.38558676838874817, 0.011414462700486183, 0.14436008036136627, 0.00945983175188303, 0.20347553491592407, -0.0068304771557450294, 0.009034944698214531, -0.012786106206476688, 0.11638563126325607, -0.03536224365234375, -0.00045464903814718127, 0.09534525871276855, 0.501354992389679, 0.3967793881893158, -0.06739169359207153, -0.00850528385490179, 0.12269021570682526, -0.03660242259502411, 0.06742854416370392, 0.6213231682777405, -0.066818468272686, 0.024581853300333023, -0.03487890213727951], [-0.010407635010778904, -0.0018010427011176944, -0.005331406835466623, 0.0036527051124721766, -0.0015918795252218843, 0.002086326014250517, 0.004250492434948683, -0.00011764458031393588, 0.00022965796233620495, -0.00534075079485774, 0.0013649706961587071, 0.010920180939137936, 0.0003046075289603323, 0.01185428723692894, 3.4152562875533476e-05, 0.0006467566126957536, -0.002001215936616063, -0.0005991474608890712, 0.005054396111518145, 0.002492224331945181, 0.0026723609771579504, -0.0036705718375742435, -0.006532211787998676, 0.00039516593096777797, -0.0015083008911460638, 0.002873039338737726, 0.0008439935045316815, 0.01513563934713602, 0.0028177567292004824, -0.0005212423275224864, -0.00120725785382092, 0.0019443575292825699], [-0.01480371505022049, -0.03631691634654999, -0.061526328325271606, -0.012278658337891102, 0.005863555707037449, -0.010316337458789349, -0.03844930976629257, 0.0009481996530666947, -0.051208965480327606, -0.010043889284133911, -0.005018622148782015, -0.09016511589288712, 0.0018388719763606787, -0.04878992587327957, -0.00046356747043319046, 0.00017298723105341196, 0.01415462326258421, -0.04028593748807907, -0.13985328376293182, -0.015775419771671295, 0.005917610600590706, -0.15774892270565033, 0.014327972196042538, -0.12850293517112732, 0.006925324909389019, -0.03586919978260994, 0.01860693283379078, -0.007792568765580654, 0.023132361471652985, -0.1396009624004364, 0.01128989178687334, -0.003898260183632374], [-0.0013812765246257186, 0.00011879406520165503, 0.002050534589216113, 0.002027366543188691, -0.0001137068320531398, 0.0002649199159350246, 0.00123813736718148, 1.888292536023073e-05, 0.0018284892430528998, -0.0004713860689662397, 8.612410601926968e-05, 0.0008882613619789481, -1.941299888130743e-05, 0.0003783998836297542, -1.8250318589707604e-06, 2.6142281058127992e-05, -0.0004539082874543965, 0.0012284750118851662, 0.006864579394459724, 0.0005165939219295979, -0.0006351488409563899, 0.00047504977555945516, -0.0002768994017969817, 0.0015306067653000355, -0.00011680318129947409, -0.0006483753677457571, 0.0009506732458248734, 0.008189826272428036, 0.008422385901212692, 8.341559441760182e-05, -0.000651691691018641, -0.00027101917658001184], [0.07385651022195816, -0.06573978811502457, 0.04978309944272041, 0.21030424535274506, -0.002712675603106618, -0.00021791286417283118, -0.23745423555374146, 0.003150344593450427, 0.017941737547516823, 0.05157889053225517, 0.0021347329020500183, -0.022809453308582306, 0.008819769136607647, -0.15166518092155457, -0.0055251880548894405, 0.008776625618338585, -0.009202558547258377, -0.11507481336593628, 0.160883367061615, -0.007845685817301273, -0.02841123752295971, -0.003718359861522913, -0.013620101846754551, 0.1979331523180008, -0.0029027005657553673, -0.01450278889387846, -0.08593348413705826, 0.011096195317804813, 0.5731143951416016, 0.12702906131744385, -0.005523729138076305, 0.0999065637588501], [0.000200571448658593, -0.0006781541160307825, 0.0014962541172280908, 0.0014917455846443772, -0.00011062513658544049, 0.00019040540792047977, 0.0009090866660699248, 5.1843180699506775e-06, -1.0926312825176865e-05, -4.705141327576712e-05, 8.714844443602487e-05, -0.0002251417754450813, -9.092323693948856e-07, 0.0006132703856565058, -3.1714700980955968e-06, 3.49338588421233e-05, -0.000313255877699703, 0.0009141410700976849, 0.0050576128996908665, 0.0003434037498664111, -0.0002373335009906441, 0.0006395154632627964, -0.0006114438874647021, 0.0013722522417083383, -0.00010920589556917548, -0.000424519763328135, 0.0005138011765666306, 0.003844408318400383, 0.006755494512617588, -0.00033191649708896875, -0.0008337147883139551, 4.113683826290071e-05], [-0.004054075572639704, 0.0008540887502022088, 0.002931361086666584, 0.005035085137933493, -0.0005633431719616055, 0.0010084760142490268, 0.0025156668853014708, 3.931187620764831e-06, 0.0014567659236490726, -0.0019712811335921288, 0.00046991126146167517, 0.00136706477496773, 9.384988516103476e-05, 0.004342654719948769, -7.996526619535871e-06, 0.00020130403572693467, -0.0014303061179816723, 0.002413859823718667, 0.008734713308513165, 0.0015627023531123996, 0.0002736291498877108, 0.001630011829547584, -0.0007423257338814437, 0.001764165237545967, -0.0005703117931261659, -0.0014690883690491319, 0.0014834011672064662, 0.014211555942893028, 0.008628260344266891, -0.0012335296487435699, -0.0009414018131792545, -0.00042934605153277516], [-0.01891682669520378, 0.0005185099435038865, -0.0243610218167305, -0.005317635368555784, -0.0010810993844643235, -0.0011865649139508605, -0.0013328230706974864, -0.00015637071919627488, -0.005731767043471336, -0.0008208976360037923, 0.0013348934007808566, 0.036833617836236954, 0.0012344256974756718, 0.016429685056209564, -0.0006358489044941962, 0.0018331557512283325, 0.004100544843822718, -0.01471722312271595, -0.008145809173583984, -0.002834758721292019, 0.002658493584021926, -0.025264952331781387, -0.021750014275312424, -0.014179558493196964, -0.00018984629423357546, 0.01913994364440441, -0.018912766128778458, 0.008549792692065239, -0.010400883853435516, 0.005735022481530905, 0.0003111623227596283, 0.014598635956645012], [-0.36544808745384216, 0.12491051107645035, 0.2516869604587555, 0.03423873707652092, 0.012767433188855648, -0.015036842785775661, 0.10284396260976791, 0.005314913112670183, 0.325870156288147, 0.1405131220817566, -0.009316656738519669, 0.31909608840942383, -0.008220835588872433, 0.22680677473545074, -0.007401641923934221, -0.002740512602031231, 0.010530926287174225, -0.37718692421913147, 0.4907490015029907, -0.015985887497663498, 0.012301287613809109, 1.1891489028930664, 0.39804917573928833, 0.09618578106164932, 0.016645874828100204, -0.555268406867981, 0.19242769479751587, -0.15585960447788239, 0.6339845061302185, -0.07070989161729813, 0.09920452535152435, 0.18856537342071533], [-0.4062778055667877, -0.25372475385665894, 0.18526072800159454, 0.2244015634059906, 0.0013296353863552213, 0.0015008029295131564, 0.08231668919324875, 0.0012250945437699556, 0.2516914904117584, 0.3026082515716553, -0.008498328737914562, -0.18513207137584686, -0.009976235218346119, -0.24422794580459595, -0.009220470674335957, 0.0026556963566690683, 0.006390940397977829, 0.309585303068161, -0.24192039668560028, -0.0031485322397202253, -0.12934036552906036, 0.21701651811599731, 0.3683834671974182, -0.1499072164297104, 0.0008071730844676495, -0.2237257957458496, 0.1251765489578247, -0.026018615812063217, 0.9369327425956726, 0.0044512078166007996, -0.09765267372131348, 0.03351480886340141], [-0.017862528562545776, -0.005084612872451544, -0.030099470168352127, -0.0037065595388412476, -0.0032029449939727783, 0.001958126900717616, 0.0025109269190579653, -0.0002998876152560115, -0.013293820433318615, -0.00864617433398962, 0.003029298037290573, 0.042075272649526596, 0.0017091993940994143, 0.02394963428378105, -0.0008594212704338133, 0.002499154070392251, 0.001150634721852839, -0.013444900512695312, -0.006408879067748785, 0.0007219751132652164, 0.0053076306357979774, -0.026846665889024734, -0.02934621274471283, -0.018175359815359116, -0.002293599536642432, 0.019497903063893318, -0.02391873300075531, 0.010843751020729542, -0.01027283538132906, 0.0089136753231287, 0.0031279248651117086, 0.022696856409311295], [-0.08129175752401352, -0.16548219323158264, -0.027607733383774757, 0.014437731355428696, -0.010599073022603989, 0.01013992354273796, 0.03426945209503174, -0.0009746143477968872, -0.24387040734291077, -0.5122933983802795, 0.0071386974304914474, -0.17405903339385986, 0.002582138404250145, -0.04523926228284836, -0.0030081230215728283, 0.005301331169903278, -0.006319577805697918, -0.009322321973741055, 0.024575963616371155, 0.013391668908298016, -0.05895843729376793, 0.10697265714406967, -0.18833215534687042, -0.3248288333415985, -0.010004657320678234, 0.028570324182510376, 0.12143892049789429, 0.007571396417915821, 0.14544203877449036, 0.15399456024169922, 0.09514418989419937, -0.2614023685455322], [0.623104453086853, -0.5084733366966248, -0.11775895953178406, -0.011550365015864372, -0.004569044336676598, 0.0018066999036818743, -0.23432302474975586, -0.0022536590695381165, -0.47704511880874634, -0.19564901292324066, 0.0024125084746629, -0.10473752021789551, -0.0006068988004699349, 0.07850517332553864, 0.005617710296064615, 0.001229092595167458, -0.00369794899597764, 0.20345504581928253, -0.03125009313225746, 0.007309664972126484, -0.2376379668712616, 0.2181459367275238, -0.11709881573915482, -0.13664817810058594, -0.002787614706903696, 0.04493986442685127, 0.04938453808426857, 0.07505115866661072, 0.005027781240642071, -0.12047591060400009, -0.10797098278999329, 0.13204434514045715], [0.02901049144566059, 0.18367311358451843, -0.01873135380446911, -0.10932885110378265, 0.011850581504404545, -0.015805847942829132, -0.11253058910369873, 0.002362925559282303, 0.014864027500152588, 0.053010907024145126, -0.008996191434562206, 0.023121070116758347, -0.003918235655874014, -0.11499734967947006, -0.0010974358301609755, -0.004085008054971695, 0.018771572038531303, 0.006686060689389706, -0.28329476714134216, -0.020167987793684006, -0.06901012361049652, 0.020308135077357292, 0.020853685215115547, -0.158083975315094, 0.011158359237015247, -0.06573817133903503, 0.02199394628405571, -0.1561054289340973, -0.19641239941120148, -0.0865374431014061, 0.03736298158764839, -0.05739350989460945], [-0.25348418951034546, 0.01881561614573002, -0.007429678458720446, -0.12412022054195404, -0.007665397133678198, 0.006750747095793486, -0.0493876114487648, 0.0013697813265025616, 0.04100537672638893, -0.06721852719783783, 0.00631550420075655, -0.06690717488527298, -0.0006569542456418276, -0.04872381314635277, -0.0017430841689929366, 0.002838197397068143, -0.010858348570764065, 0.03790080174803734, 0.026618482545018196, 0.011030824854969978, -0.23204152286052704, 0.09759899973869324, 0.04837930575013161, -0.30120009183883667, -0.0037619408685714006, -0.10107015818357468, 0.1204189881682396, 0.09379319101572037, 0.24979999661445618, -0.11867793649435043, 0.07361090183258057, -0.07583014667034149], [-0.011584262363612652, -0.0004853466816712171, -0.0019748492632061243, 0.007450949866324663, -0.001755569246597588, 0.0023326885420829058, 0.00570891797542572, -0.0001295956171816215, 9.376253001391888e-05, -0.005163907073438168, 0.0015165889635682106, 0.009640228003263474, 0.00034659626544453204, 0.01338852196931839, -2.58352611126611e-05, 0.0006932722753845155, -0.0023827822878956795, 0.00038705102633684874, 0.00874022115021944, 0.0028882729820907116, 0.0022940202616155148, -0.0032317694276571274, -0.006305142305791378, -0.0009845097083598375, -0.0016727198380976915, 0.0008665986824780703, -0.0012182161444798112, 0.019566940143704414, 0.007216486614197493, -0.001890570274554193, -0.0007138946675695479, 0.0020804416853934526], [-0.1320544332265854, 0.3290233314037323, -0.050253063440322876, 0.1386057585477829, 0.017438480630517006, -0.015892932191491127, 0.054693080484867096, 0.0014592937659472227, 0.006691463757306337, -0.10521211475133896, -0.018142784014344215, 0.05308281630277634, -0.008384151384234428, -0.1371942162513733, -0.002372582210227847, -0.009360898286104202, 0.0313199907541275, -0.04169413819909096, -0.14437954127788544, -0.036085162311792374, 0.009560378268361092, -0.20962978899478912, -0.159391388297081, 0.14218994975090027, 0.013721472583711147, -0.10664242506027222, -0.16832058131694794, -0.09060893207788467, -0.12815093994140625, 0.18858855962753296, 0.0717582255601883, -0.01421622559428215], [-0.0013261389685794711, 0.014077415689826012, 0.06758863478899002, -0.1343012899160385, 0.029702337458729744, -0.04689271003007889, -0.0916379764676094, -0.0019055819138884544, 0.18369992077350616, -0.06750837713479996, -0.027223479002714157, 0.32075420022010803, -0.0010646210284903646, 0.0038047952111810446, 0.00018255335453432053, -0.008898116648197174, 0.0565481036901474, -0.08070855587720871, 0.07653314620256424, -0.05696255341172218, 0.0022064971271902323, -0.02584155835211277, -0.017277449369430542, 0.0725945457816124, 0.030365822836756706, 0.22553306818008423, -0.028679100796580315, -0.1459459811449051, -0.21767982840538025, -0.0069131203927099705, -0.07462150603532791, 0.014939222484827042], [-0.2191060483455658, -0.033068154007196426, -0.22470973432064056, -0.11616235971450806, 0.002833172446116805, -0.004731441382318735, -0.02846069633960724, 0.0013346938649192452, -0.017178690060973167, -0.07052207738161087, -0.004913908429443836, 0.24403682351112366, -0.004571464844048023, 0.2852562367916107, -8.589981734985486e-05, -0.0031778409611433744, -7.598501542815939e-05, 0.12425742298364639, 0.10753893107175827, -0.0009793288772925735, 0.20572949945926666, -0.006696553900837898, -0.008856290951371193, -0.37271103262901306, 0.008110515773296356, 0.11142820864915848, 0.5627416372299194, -0.1308974027633667, 1.203691005706787, 0.030166393145918846, 0.20031289756298065, -0.05477225035429001], [-0.15298618376255035, -0.01783239282667637, -0.04109329357743263, 0.044532205909490585, -0.0009425792959518731, 0.0039948392659425735, 0.0591343529522419, 0.004177734721451998, -0.04535144194960594, -0.09879999607801437, -0.0009710537851788104, 0.1097642183303833, -0.004580394830554724, 0.022037524729967117, 0.0035366914235055447, 0.0001588775630807504, -0.00010981424566125497, -0.003188078524544835, 0.14501512050628662, 0.0003047462669201195, -0.009639053605496883, -0.09888982772827148, -0.10397748649120331, 0.09931235760450363, -0.001918993890285492, -0.020431814715266228, -0.06656192243099213, 0.022960275411605835, -0.17488135397434235, 0.04742087423801422, 0.0787571594119072, 0.06875216960906982], [0.49485576152801514, 0.05952699854969978, 0.023929793387651443, -0.11246674507856369, 0.00442740460857749, 5.724611401092261e-05, -0.20734328031539917, -0.0007616917719133198, 0.008616981096565723, -0.10795647650957108, -0.00157651596236974, -0.07375463098287582, 0.0026392864529043436, 0.06223752722144127, -0.0017829615389928222, -0.0029752871487289667, -0.001590539701282978, 0.34199148416519165, -0.20581014454364777, -0.005555019248276949, 0.15516161918640137, 0.20490480959415436, 0.048271894454956055, 0.0313275009393692, -0.0009618366020731628, 0.05962775647640228, 0.1592177152633667, -0.053168363869190216, 0.23383866250514984, -0.08035652339458466, -0.022701360285282135, -0.18657974898815155], [0.09789828211069107, 0.14345529675483704, -0.06113046407699585, -0.039550215005874634, 0.0008352848817594349, -0.00076954165706411, -0.05297403037548065, -0.00021141189790796489, -0.08319678157567978, -0.09875266253948212, -0.001337922876700759, -0.1626979261636734, 0.0031600382644683123, -0.02645166963338852, -0.0015338994562625885, -0.0014951042830944061, 0.0009326162398792803, 0.18895088136196136, -0.08476725220680237, -0.0010292024817317724, -0.060126036405563354, 0.07963661849498749, -0.08272288739681244, -0.12117662280797958, -0.00036630197428166866, -0.1267055869102478, -0.012332914397120476, -0.05901346728205681, -0.10521214455366135, -0.12646855413913727, 0.04366327077150345, 0.05706365779042244], [0.13049837946891785, 0.11334943771362305, 0.12802965939044952, 0.0967298075556755, 0.050650808960199356, -0.06470312923192978, 0.06725096702575684, 0.0002342722873436287, -0.01694970764219761, 0.20901282131671906, -0.05278636887669563, 0.08402156829833984, -0.02986193262040615, 0.40197518467903137, 0.005492696072906256, -0.03432217985391617, 0.05698491260409355, -0.306694895029068, 0.01080212090164423, -0.058612167835235596, 0.2701413929462433, 0.09261623024940491, -0.0012114422861486673, 0.40082040429115295, 0.05297885090112686, -0.08294948935508728, -0.10916758328676224, 0.04188111424446106, 0.7146066427230835, -0.006471509113907814, -0.006549234967678785, -0.048290103673934937], [-0.14223720133304596, -0.0026396773755550385, -0.07293937355279922, -0.06677703559398651, 0.00975228101015091, -0.009106235578656197, 0.30097639560699463, 0.004048873670399189, 0.31545525789260864, 0.08958534151315689, -0.006242846604436636, 0.20076636970043182, -0.006308784708380699, -0.020893866196274757, 0.0029439441859722137, -0.003093801438808441, 0.009921705350279808, -0.15233953297138214, -0.0049721370451152325, -0.013314598239958286, -0.0835602730512619, -0.2705481946468353, -0.03707186505198479, -0.07829565554857254, 0.008147944696247578, -0.08252210915088654, 0.01390291191637516, -0.030685823410749435, 0.09374818205833435, 0.012816405855119228, 0.22868171334266663, 0.05869358777999878], [-0.4218393862247467, -0.32869869470596313, -0.08341293781995773, -0.14184609055519104, -0.0176213551312685, 0.01155213825404644, 0.04729542136192322, -0.0009701779927127063, -0.030081897974014282, 0.2485009729862213, 0.010819039307534695, 0.3599332571029663, -0.0031151960138231516, -0.14785629510879517, 0.01025724969804287, 0.0030719975475221872, -0.02655424363911152, -0.6169828176498413, 0.2119869738817215, 0.019028345122933388, 0.309170126914978, -0.2096673995256424, 0.06518086045980453, 0.3934432864189148, -0.012299822643399239, -0.14136925339698792, -0.1277974396944046, -0.07772068679332733, -0.36103594303131104, 0.13894771039485931, 0.092617467045784, 0.08010809868574142], [0.001189365517348051, 0.054574087262153625, -0.15152956545352936, -0.023480698466300964, -0.008941120468080044, 0.005871532950550318, 0.0925738513469696, -0.0014291537227109075, -0.023753024637699127, -0.023280760273337364, 0.01232860516756773, -0.10932102799415588, 0.004352892283350229, 0.08594180643558502, -0.0003219078644178808, 0.005448730196803808, -0.016376471146941185, -0.015476650558412075, -0.3438253700733185, 0.012357411906123161, 0.0655660480260849, 0.0005816150223836303, 0.01874294877052307, -0.14458982646465302, -0.004668675363063812, -0.01481174398213625, 0.07953834533691406, -0.029255852103233337, -0.3372866213321686, -0.08323581516742706, 0.046992309391498566, 0.09170377254486084], [0.014400891028344631, -0.06564466655254364, 0.07050638645887375, 0.11859315633773804, -0.004057623911648989, 0.0068658399395644665, 0.40222546458244324, -0.0014098829124122858, 0.4048531651496887, 0.340803325176239, 0.0012737364741042256, 0.02794157899916172, 0.005090543068945408, -0.022834589704871178, -0.00144625932443887, 0.0075408355332911015, -0.005482045002281666, -0.4929307699203491, -0.27997130155563354, 0.005804333370178938, 0.01991027593612671, -0.37041565775871277, 0.11399947851896286, -0.06572212278842926, -0.008592259138822556, 0.21716351807117462, 0.09154602140188217, -0.18643325567245483, -0.8234802484512329, -0.41787225008010864, 0.10286298394203186, 0.20941783487796783], [-0.013926585204899311, -0.0016323333838954568, -0.0068488470278680325, 0.006782506592571735, -0.0021360369864851236, 0.0028411049861460924, 0.007083720061928034, -0.00015255568723659962, -0.0010367159266024828, -0.007532241754233837, 0.00183767918497324, 0.013294770382344723, 0.0003931701648980379, 0.016422484070062637, 3.097265653195791e-05, 0.0008469076128676534, -0.002842404181137681, 0.0008989794878289104, 0.007785636931657791, 0.0036320972722023726, 0.0028291079215705395, -0.004818351473659277, -0.007641267497092485, -0.0015537706203758717, -0.002017323626205325, 0.0017921203980222344, -0.0015664794482290745, 0.019401168450713158, 0.004852564539760351, -0.001438428065739572, -0.0004941005608998239, 0.0036982104647904634], [-0.015329456888139248, -0.003057158784940839, -0.012713339179754257, 0.0018473491072654724, -0.002486151410266757, 0.0020598950795829296, 0.005003148689866066, -0.00021962597384117544, -0.0014520948752760887, -0.004370043985545635, 0.002347178990021348, 0.022914480417966843, 0.0007519064820371568, 0.017528703436255455, -0.0001635408989386633, 0.0014674760168418288, -0.0007858613971620798, -0.006163795478641987, 0.0011956539237871766, 0.001845745136961341, 0.0036662030033767223, -0.011850330047309399, -0.01339612528681755, -0.004835606552660465, -0.0020775976590812206, 0.008922876790165901, -0.008398163132369518, 0.014902760274708271, -0.000642055063508451, 0.0008915596408769488, -0.0008220573654398322, 0.006324150133877993], [0.8367314338684082, -0.5117154121398926, 0.12347474694252014, -0.10898255556821823, 0.0182513277977705, -0.02202501706779003, -0.2013586312532425, 0.0004392891132738441, 0.06629292666912079, -0.025033114477992058, -0.011751585640013218, -0.08942961692810059, -0.0018163849599659443, 0.3181656002998352, 0.0038092085160315037, -0.008848289959132671, 0.026085056364536285, 0.1432499885559082, -0.23753415048122406, -0.03355015814304352, 0.4900837242603302, -0.11645566672086716, -0.08952537924051285, 0.18600992858409882, 0.013854505494236946, 0.5682058930397034, 0.2955552935600281, -0.0089573934674263, -0.749538242816925, -0.40462690591812134, -0.1657635122537613, 0.1006278395652771], [-6.761905387975276e-05, 8.600768342148513e-05, 0.00030888826586306095, 0.00017067024600692093, -7.767432180116884e-06, 1.830981273087673e-05, 0.0001308942592004314, -3.283589876446058e-06, 0.0002685250074137002, 9.80760742095299e-05, 3.6947415082977386e-06, -2.59218013525242e-05, -8.584574061387684e-06, 9.402081923326477e-05, 6.91649711370701e-06, -6.353393473546021e-06, -2.222906368842814e-05, 0.0001240634883288294, 0.0011049184249714017, 3.0155963031575084e-05, -1.5555957361357287e-05, 1.3106586038702517e-06, 2.4913666493375786e-05, 4.482480653678067e-05, -8.875031198840588e-06, 1.3787401258014143e-05, -0.00011359223572071642, 0.0008267491357401013, 0.0007140926900319755, 1.8104927221429534e-05, -8.345512469531968e-05, -1.4738416211912408e-05], [-0.21773865818977356, -0.1050020232796669, 0.04682231321930885, -0.13011428713798523, 0.011008290573954582, -0.019001653417944908, 0.0654594823718071, -0.006875854451209307, 0.6277166604995728, 0.46073129773139954, -0.003766302950680256, -0.147829070687294, -0.0032263798639178276, -0.10775406658649445, -0.0009648455888964236, -0.008532913401722908, 0.003473016433417797, -0.10117646306753159, -0.013281989842653275, -0.013298616744577885, -0.06714359670877457, 0.026886986568570137, 0.04096277058124542, -0.025633759796619415, 0.014089572243392467, 0.12301485985517502, 0.3125799596309662, -0.031151432543992996, 0.4372931718826294, 0.19588249921798706, 0.0277116596698761, 0.14035040140151978], [-0.03946959972381592, -0.06788788735866547, 0.17595088481903076, -0.11853869259357452, -0.016636716201901436, 0.01815706677734852, 0.02582155168056488, 0.0010557277128100395, 0.03259411081671715, -0.10049382597208023, 0.015082450583577156, -0.28568723797798157, 0.00974007323384285, 0.24160943925380707, -0.012198448181152344, 0.019883260130882263, -0.015377935953438282, -0.19184011220932007, 0.05125958472490311, 0.01928245835006237, 0.2843685448169708, -0.09995889663696289, 0.06482589989900589, -0.046062618494033813, -0.017089728266000748, 0.26072078943252563, -0.059387192130088806, -0.11395106464624405, -0.7745113968849182, -0.6525052785873413, -0.056271497160196304, -0.18091101944446564], [-0.011116358451545238, -0.0018062274903059006, -0.006040441337972879, 0.003571501700207591, -0.0015780733665451407, 0.0020324932411313057, 0.004453874658793211, -0.00011032970360247418, 0.0003153769939672202, -0.005214586853981018, 0.0013641519472002983, 0.011461115442216396, 0.00031471202964894474, 0.012327366508543491, 2.135879003617447e-05, 0.000654855219181627, -0.0019092770526185632, -0.0006369429756887257, 0.005154039710760117, 0.002408782485872507, 0.002668009139597416, -0.004016086459159851, -0.006113208364695311, 0.00030330425943247974, -0.0014843406388536096, 0.0030689730774611235, 0.0004349846567492932, 0.015432407148182392, 0.0029665175825357437, -0.0003740251122508198, -0.0008668024674989283, 0.0020126577001065016], [0.12863217294216156, -0.09240218997001648, -0.14210635423660278, -0.0003439726133365184, 0.01281197089701891, -0.016668936237692833, -0.10864236205816269, 0.0016244694124907255, -0.04993419721722603, 0.022723369300365448, -0.011300120502710342, -0.19163399934768677, 0.0012694181641563773, -0.17386211454868317, -0.001140614040195942, -0.0013047290267422795, 0.02197801135480404, -0.11546570807695389, -0.37005773186683655, -0.024327773600816727, 0.021011957898736, -0.2572614550590515, -0.006970493588596582, -0.16366952657699585, 0.013267920352518559, 0.041943855583667755, 0.07392451167106628, 0.0007157959043979645, -0.0633663535118103, -0.21281960606575012, -0.02335435152053833, -0.002150828717276454], [-0.0013869605027139187, 0.0001212406568811275, 0.0018820187542587519, 0.0019052517600357533, -0.00010676254169084132, 0.0002492590865585953, 0.0011306434171274304, 1.8398966858512722e-05, 0.0017284562345594168, -0.0004589853051584214, 8.1001860962715e-05, 0.0008883000118657947, -1.8550850654719397e-05, 0.00038931629387661815, -1.0693768217606703e-06, 2.4919123461586423e-05, -0.0004282100999262184, 0.001150299678556621, 0.006675804033875465, 0.00048614240949973464, -0.0005581587320193648, 0.00047172358608804643, -0.0002100045239785686, 0.0014867252903059125, -0.00010930740972980857, -0.0005967102479189634, 0.0008586255135014653, 0.008035928942263126, 0.008259405381977558, 0.00011718152381945401, -0.0005741853383369744, -0.0002738256589509547], [0.06016772985458374, 0.09008336067199707, -0.19282357394695282, -0.19969069957733154, -0.022493578493595123, 0.02181008644402027, -0.3140883147716522, 0.0023571797646582127, -0.37019410729408264, -0.0740618109703064, 0.01861272193491459, -0.1422584503889084, 0.016443386673927307, -0.14819566905498505, -0.011247856542468071, 0.02188132144510746, -0.02626744844019413, 0.15842679142951965, -0.07986681163311005, 0.0230668056756258, -0.09054366499185562, -0.1915958821773529, -0.144719660282135, 0.18316693603992462, -0.020962845534086227, -0.05674401670694351, 0.025711098685860634, -0.1642257571220398, -0.803507387638092, -0.25090426206588745, 0.0035896701738238335, 8.801101648714393e-05], [7.793487020535395e-05, -0.0005796285113319755, 0.0012071676319465041, 0.0012111170217394829, -7.408508827211335e-05, 0.00013599598605651408, 0.0006974753341637552, 3.1228014449879993e-06, -6.651469448115677e-05, 1.1786692994064651e-05, 5.5969350796658546e-05, -0.00017186276090797037, -5.984284598525846e-06, 0.0005001765093766153, 3.0338080705405446e-06, 1.9189865270163864e-05, -0.0002338272170163691, 0.000816687592305243, 0.004461932461708784, 0.0002565610338933766, -0.00021801127877552062, 0.0004992489702999592, -0.0005096326931379735, 0.0011872983304783702, -7.400252798106521e-05, -0.00029637827537953854, 0.00029076074133627117, 0.00327850179746747, 0.006085034925490618, -0.00022771215299144387, -0.0006679552607238293, 4.702974183601327e-05], [-0.004346190486103296, 0.0008993908413685858, 0.002371318871155381, 0.004690887872129679, -0.0005224032793194056, 0.0009352513588964939, 0.002525642514228821, 2.8672452572209295e-06, 0.0013379133306443691, -0.0016962061636149883, 0.0004379234742373228, 0.0014369819546118379, 9.295790368923917e-05, 0.004287075717002153, -7.772107892378699e-06, 0.00019012090342584997, -0.0013190413592383265, 0.0022781803272664547, 0.008296966552734375, 0.001440483029000461, 0.0003387875040061772, 0.0011804824462160468, -0.0002569766074884683, 0.0016781551530584693, -0.000530464865732938, -0.001394340768456459, 0.000893415417522192, 0.013855847530066967, 0.008263807743787766, -0.0011621880112215877, -0.0006880573928356171, -0.0004662478168029338], [-0.01999892108142376, 0.0004850602417718619, -0.025820672512054443, -0.00555205624550581, -0.0006745270220562816, -0.0017125295707955956, -0.0011966787278652191, -0.00014007496065460145, -0.005670864135026932, -0.00012295164924580604, 0.0009810198098421097, 0.03836313635110855, 0.0011972938664257526, 0.017081839963793755, -0.0007732115336693823, 0.0016219611279666424, 0.004686212632805109, -0.015283932909369469, -0.008323551155626774, -0.00332842068746686, 0.002398199401795864, -0.026518231257796288, -0.02245994843542576, -0.015088905580341816, 0.0003079070302192122, 0.01980895921587944, -0.020294243469834328, 0.00882582738995552, -0.010652993805706501, 0.006221103481948376, 0.0009968836093321443, 0.015797298401594162], [0.13765563070774078, -0.09094052761793137, -0.08810030668973923, -0.2053888589143753, 0.023433517664670944, -0.0325184166431427, -0.24366958439350128, -0.0035877488553524017, -0.24584591388702393, 0.06507696211338043, -0.02337164618074894, -0.20002491772174835, -0.007990221492946148, -0.04721739888191223, 0.0003920828748960048, -0.013832656666636467, 0.04305817559361458, -0.22188720107078552, -0.35189223289489746, -0.041656218469142914, -0.13522030413150787, -0.05186811834573746, -0.1672038733959198, -0.03891134634613991, 0.028659213334321976, 0.022596100345253944, 0.17028506100177765, -0.09328258037567139, -0.7792883515357971, -0.3440955579280853, 0.19358967244625092, -0.020803017541766167], [0.15589627623558044, 0.2974872291088104, -0.1477319449186325, -0.01978287659585476, 0.006405293941497803, -0.004199528601020575, -0.058867406100034714, 0.0038070150185376406, -0.037036605179309845, 0.010852287523448467, -0.004502405412495136, -0.31633275747299194, -0.0010913348523899913, -0.23531369864940643, 0.0001615859364392236, -0.001876445603556931, 0.003572087036445737, -0.19976752996444702, -0.5174792408943176, -0.0058936383575201035, -0.01021616905927658, -0.23669852316379547, 0.06290079653263092, 0.06644051522016525, 0.004820201080292463, -0.12968219816684723, -0.008022063411772251, -0.27282509207725525, -1.0742520093917847, -0.21176613867282867, 0.02742718532681465, -0.10875142365694046], [-0.01915762573480606, -0.004821091424673796, -0.031097738072276115, -0.0035644746385514736, -0.003305967664346099, 0.0020162092987447977, 0.002842175541445613, -0.00028496937011368573, -0.013869975693523884, -0.008786141872406006, 0.0031198705546557903, 0.043049346655607224, 0.001822342979721725, 0.024917064234614372, -0.0010220147669315338, 0.002524499548599124, 0.0011706750374287367, -0.013289275579154491, -0.006166389212012291, 0.000810725090559572, 0.005516330245882273, -0.027582868933677673, -0.030268514528870583, -0.01862116903066635, -0.002306574024260044, 0.019561273977160454, -0.02484997920691967, 0.011386031284928322, -0.010126874782145023, 0.009030692279338837, 0.003638515016064048, 0.024031028151512146], [-0.11318905651569366, -0.007576115895062685, -0.00294899451546371, -0.12700432538986206, -0.005972524173557758, 0.0047993422485888, 0.08326584100723267, -0.001095266779884696, -0.269155353307724, -0.6050465703010559, 0.002380735008046031, -0.09423323720693588, -0.0022638572845607996, -0.03928463160991669, -0.0011588797206059098, 0.0010957906488329172, -0.00026536709628999233, 0.056581299751996994, -0.09838452190160751, 0.008580096065998077, -0.15458248555660248, 0.1661209762096405, -0.19971798360347748, -0.41442134976387024, -0.005436180159449577, -0.041400451213121414, 0.05462945997714996, -0.04707053676247597, -0.09149163216352463, 0.08418615162372589, 0.09677542746067047, -0.2831260859966278], [0.15559643507003784, -0.40433764457702637, -0.1618797779083252, -0.03305473551154137, -0.0037051767576485872, 0.001811184105463326, -0.2348642498254776, -0.0022856234572827816, -0.4128347337245941, -0.11948081105947495, 0.0027832784689962864, -0.07657623291015625, -0.0024952495004981756, 0.04138047248125076, 0.008021482266485691, -0.0014654634287580848, -0.009079938754439354, 0.01379062607884407, -0.052393123507499695, 0.008598060347139835, -0.39954835176467896, 0.4092240035533905, -0.06048038229346275, -0.08962459117174149, -0.0021709194406867027, -0.02276396006345749, -0.0014013968175277114, 0.08839323371648788, -0.06870177388191223, -0.06596639007329941, 0.055791210383176804, 0.18400074541568756], [0.02677025832235813, -0.009034493938088417, 0.002668578177690506, -0.0930992141366005, 0.01729867421090603, -0.013396973721683025, -0.11845705658197403, 0.006652423646301031, 0.18776820600032806, 0.258422315120697, -0.010643759742379189, 0.23018696904182434, -0.01036670058965683, -0.2534564137458801, -0.0021422551944851875, -0.005919768009334803, 0.01231649611145258, -0.27170127630233765, -0.24256858229637146, -0.01677260547876358, -0.007043526042252779, -0.12178075313568115, 0.21770629286766052, -0.034134335815906525, 0.013556723482906818, -0.037996556609869, -0.03708617761731148, 0.009422185830771923, -0.003233028342947364, -0.015436393208801746, 0.10110773146152496, -0.1327241063117981], [-0.02570946514606476, -0.06407728046178818, -0.11237575858831406, -0.23728302121162415, -0.006717149168252945, 0.004154352471232414, 0.13461412489414215, -0.0007144431583583355, 0.05308963358402252, 0.012336683459579945, 0.007558674551546574, -0.12273430824279785, -0.00046053368714638054, -0.03752497211098671, -0.00020391237922012806, 0.0022201717365533113, -0.011671524494886398, 0.15183839201927185, -0.04703563079237938, 0.010098657570779324, -0.05760883912444115, 0.08307397365570068, 0.10242750495672226, -0.1762605905532837, -0.002954003633931279, -0.019522646442055702, -0.017650173977017403, -0.002179413102567196, 0.04725594446063042, -0.00582961505278945, -0.04763522744178772, -0.06130990386009216], [-0.012002145871520042, -0.00042561625014059246, -0.002398123499006033, 0.007128753233700991, -0.00169267482124269, 0.002232305007055402, 0.005659913644194603, -0.0001230558118550107, 0.0003361125127412379, -0.004741514567285776, 0.0014692397089675069, 0.009873771108686924, 0.0003415973042137921, 0.013343874365091324, -3.013497916981578e-05, 0.0006779514369554818, -0.002255376661196351, 0.00018604678916744888, 0.008521030656993389, 0.0027431081980466843, 0.0023052708711475134, -0.0036632188130170107, -0.005601555574685335, -0.000898943399079144, -0.0016074227169156075, 0.0010299141285941005, -0.0016306015895679593, 0.019420308992266655, 0.007095003966242075, -0.0018074160907417536, -0.0005143398884683847, 0.0019666384905576706], [0.08309189230203629, 0.4064406752586365, 0.052352145314216614, 0.14171500504016876, 0.016751056537032127, -0.014486768282949924, 0.04003879427909851, 0.0013191066682338715, 0.08813247829675674, -0.20959754288196564, -0.017615823075175285, 0.11143600195646286, -0.009203149005770683, -0.08960367739200592, -0.0026326433289796114, -0.008596666157245636, 0.03072899393737316, 0.05657152086496353, -0.06228528171777725, -0.034225814044475555, -0.03426432982087135, -0.1733066588640213, -0.2283405214548111, 0.14001800119876862, 0.012521515600383282, -0.25270092487335205, -0.1729433387517929, -0.08999355882406235, -0.028556697070598602, 0.05799873173236847, 0.05933110788464546, -0.00700016412883997], [0.410201758146286, -0.23291094601154327, 0.129386767745018, -0.16512443125247955, 0.0593673512339592, -0.07625748962163925, 0.11548948287963867, -0.0006252946332097054, -0.02001230977475643, -0.11562501639127731, -0.061665378510951996, 0.06655646115541458, -0.01696494035422802, -0.08018490672111511, 0.0022885682992637157, -0.03921445086598396, 0.07872481644153595, 0.1304544359445572, 0.19164878129959106, -0.07539213448762894, -0.014604831114411354, -0.29131466150283813, -0.15779834985733032, 0.11461661010980606, 0.05581345036625862, 0.2768024206161499, -0.2001168429851532, -0.12316134572029114, -0.3068748414516449, -0.24872465431690216, -0.10307326167821884, 0.1423690766096115], [-0.0155350212007761, 0.06113774701952934, -0.3633677065372467, -0.1500096470117569, -0.002981620840728283, 0.0029511547181755304, 0.05206499993801117, 0.0021991149988025427, -0.3714822828769684, -0.12336369603872299, 0.0025118784978985786, 0.13018542528152466, -0.00481014559045434, 0.33788731694221497, 0.0008794667664915323, -0.008523832075297832, -0.00483934860676527, -0.10475176572799683, -0.2828467786312103, 0.006670716218650341, 0.11221835017204285, -0.22727367281913757, 0.016840333119034767, 0.04967183247208595, 0.002107857959344983, -0.032592859119176865, 0.5572693347930908, -0.03542228788137436, -1.080784559249878, -0.3108276128768921, 0.13984936475753784, -0.08552288264036179], [-0.14040951430797577, -0.0587579607963562, -0.08919597417116165, 0.06167149543762207, -0.0013950745342299342, 0.00624916423112154, 0.027571238577365875, 0.004028642550110817, -0.12730681896209717, -0.2617630064487457, -0.001143253524787724, 0.11216049641370773, -0.0005567079060710967, 0.10234494507312775, 0.0009515770943835378, 0.0021985333878546953, -0.0007280586869455874, 0.06896427273750305, 0.03200700506567955, 0.0002058609970845282, -0.06281539797782898, -0.10663564503192902, -0.1780690997838974, 0.15490876138210297, -0.004242931958287954, 0.024708455428481102, -0.0030757468193769455, -0.05803949758410454, -0.5289943218231201, 0.0529206320643425, 0.13243472576141357, 0.24153266847133636], [-0.0932757630944252, 0.20499011874198914, 0.014171234332025051, -0.18233363330364227, 0.004415173549205065, -0.0012157057644799352, -0.24508064985275269, 0.00023718070588074625, -0.12137047201395035, -0.19217398762702942, -0.003110138000920415, -0.1058896854519844, 0.002283311914652586, 0.0301304180175066, -0.0014804030070081353, -0.004607008770108223, -0.0009185937233269215, 0.36334967613220215, -0.26055413484573364, -0.008112912066280842, 0.14456315338611603, 0.19878388941287994, -0.0180987361818552, -0.09938204288482666, -0.0006217753398232162, -0.11724195629358292, 0.10841314494609833, -0.08414433896541595, -0.10554784536361694, -0.12529075145721436, 0.03775867074728012, -0.06805671006441116], [-0.04146120324730873, 0.2173660397529602, -0.08989089727401733, -0.07375241816043854, -0.004225532989948988, 0.005627306178212166, -0.01821138523519039, 0.0010870432015508413, -0.11072071641683578, -0.1370018571615219, 0.0026840909849852324, -0.2147229164838791, 0.00469130789861083, -0.03412140905857086, -0.002533541526645422, 0.0013264272129163146, -0.006792186759412289, 0.28343018889427185, -0.06386937946081161, 0.00727411825209856, -0.1130923479795456, 0.10665613412857056, -0.13325922191143036, -0.17870266735553741, -0.005880520213395357, -0.2007834017276764, 0.03311065584421158, -0.05133332312107086, -0.08259466290473938, -0.21011491119861603, 0.06457370519638062, 0.07157832384109497], [-0.023862749338150024, -0.013166085816919804, -0.12571083009243011, -0.1417524218559265, 0.03585255146026611, -0.05393194407224655, 0.27564775943756104, 0.0007300626602955163, -0.24647672474384308, 0.2595495879650116, -0.03625096008181572, -0.1220645010471344, -0.018271995708346367, 0.29921427369117737, 0.0014249093364924192, -0.022674046456813812, 0.05527802184224129, -0.2677835524082184, -0.3091403543949127, -0.04848666116595268, 0.2783336639404297, -0.17212659120559692, 0.16064071655273438, 0.17588120698928833, 0.03801783546805382, 0.20163321495056152, -0.06846966594457626, 0.02733825147151947, -0.9254317879676819, -0.21319136023521423, 0.08186626434326172, -0.12161531299352646], [-0.17779092490673065, -1.6357470750808716, 0.06634020060300827, 0.2607031762599945, -0.0018016156973317266, -0.005639514420181513, -0.20056064426898956, -0.0012514940463006496, 0.17067614197731018, -0.5199196338653564, -0.004807283170521259, 0.052848730236291885, -0.0033718114718794823, 0.17146064341068268, 0.0003476711281109601, 0.00601212540641427, 0.010003681294620037, 0.5504074692726135, -0.7885634899139404, -0.015543305315077305, -0.13757239282131195, -0.6902936697006226, 0.998192548751831, 0.11961124837398529, -0.004238275811076164, -0.9225244522094727, -0.08684910088777542, -0.1411026269197464, -0.39041411876678467, -0.08822076767683029, 0.013392732478678226, -0.2490941435098648], [0.31606870889663696, 1.0100159645080566, 0.03750617057085037, 0.8931645750999451, 0.02462533302605152, -0.026077982038259506, -1.1576191186904907, -0.004796890541911125, 0.2307901233434677, -1.4523698091506958, -0.020414192229509354, 0.08879061043262482, -0.001973609672859311, -0.6520565152168274, 0.00899263471364975, -0.009954393841326237, 0.020479287952184677, -0.7173980474472046, 0.590970516204834, -0.031046101823449135, 0.19521719217300415, 0.3313220143318176, -0.3795859217643738, -0.1467917263507843, 0.018486754968762398, 0.45277854800224304, 0.08825523406267166, 0.2525698244571686, -0.08682442456483841, 1.0637869834899902, 0.07862553745508194, 0.565889835357666], [-0.018774455413222313, -0.009142662398517132, 0.15687502920627594, 0.17651070654392242, 0.02418769896030426, -0.02361346036195755, -0.19168530404567719, -0.004962037317454815, -0.4243694841861725, 0.20380674302577972, -0.01927991770207882, 0.35097265243530273, -0.003944717813283205, 0.03354177251458168, 0.010992090217769146, -0.017868269234895706, 0.0268693957477808, -0.257914274930954, 0.01678507961332798, -0.033000074326992035, 0.22643710672855377, 0.005036172457039356, 0.11737410724163055, -0.6055096387863159, 0.021417008712887764, 0.06280842423439026, -0.03464068844914436, -0.9660921096801758, -0.0186702199280262, 0.08380737155675888, 0.02202461287379265, 0.1348268687725067], [0.10487911850214005, 0.02501954697072506, -0.09295354038476944, 0.3193342089653015, 0.0047316295094788074, -0.003965266980230808, -0.17216020822525024, 0.0008809957071207464, -0.14348267018795013, -0.6234052181243896, -0.0029406514950096607, 0.05850325524806976, -0.00018699960492085665, 0.026415444910526276, -0.0017903093248605728, -0.0038417871110141277, 0.013235630467534065, -0.2681463658809662, 0.26925814151763916, -0.013920878060162067, -0.14672298729419708, 0.1092541366815567, -0.009317104704678059, 0.2229912132024765, 0.0035262820310890675, 0.37809568643569946, -0.2138025462627411, -0.28750306367874146, 0.12502163648605347, 0.03014729544520378, -0.05140876770019531, -0.8332635164260864], [-0.011404710821807384, -0.010605166666209698, -0.018592702224850655, -0.00911699142307043, -0.008988489396870136, 0.007569112814962864, -0.011274073272943497, -0.001613616244867444, 0.008625391870737076, 0.007662684191018343, 0.006762293633073568, 0.03262196108698845, 0.0050649819895625114, 0.011606640182435513, -0.004225983750075102, 0.0032109117601066828, 0.0027173941489309072, -0.019897321239113808, -0.0038478155620396137, -0.0002639275335241109, 0.0006239830981940031, -0.016878414899110794, -0.02538289502263069, -0.01449219323694706, -0.007766292430460453, 0.018283111974596977, -0.033743783831596375, -0.0015019054990261793, -0.010369104333221912, 0.01372326910495758, -0.0031099808402359486, 0.007466272450983524], [0.013423598371446133, 0.01135496236383915, 0.024151498451828957, 0.011543282307684422, -0.0009226349648088217, -0.0018195932498201728, 0.011361520737409592, 0.002350100316107273, -0.0018934195395559072, -0.01487201638519764, 0.00012568572128657252, -0.04053685814142227, -0.0026900784578174353, -0.007895432412624359, 0.0015857727266848087, 0.0028995440807193518, -0.008790150284767151, 0.018980994820594788, 0.012857997789978981, 0.009618833661079407, -0.0014292944688349962, 0.01728903315961361, 0.02896692045032978, 0.0075248475186526775, 0.002028263173997402, -0.024004675447940826, 0.034387972205877304, 0.00419435603544116, 0.011641902849078178, -0.019522638991475105, -0.0013748802011832595, -0.005344565026462078], [-1.0988997220993042, 0.6234712600708008, -0.008135897107422352, -0.11168389022350311, -0.015491034835577011, 0.013575556688010693, 0.493747740983963, -0.003273140639066696, -0.36212530732154846, -0.005435053259134293, 0.011325214058160782, 0.3537845313549042, 0.004402868915349245, -0.07997095584869385, -0.005011033266782761, 0.008549301885068417, -0.015129395760595798, 0.0650271624326706, -0.1721414476633072, 0.025974489748477936, -0.20303881168365479, -0.3874877989292145, 0.22946003079414368, -0.1941114366054535, -0.009908363223075867, -0.04238241910934448, -0.32561519742012024, 0.3250194787979126, -0.12090473622083664, -0.002184579148888588, 0.07907281070947647, 0.3773633539676666], [0.006445079576224089, 0.012337001971900463, 0.0005416272324509919, 0.003729521296918392, 0.009154193103313446, -0.0072474973276257515, 0.00013839328312315047, -0.0025234573986381292, 0.0026016586925834417, -0.0005628906656056643, -0.007678175810724497, 0.001043957658112049, -0.0007767998031340539, -0.003201738465577364, 0.0025284404400736094, -0.003477805992588401, 0.013799523934721947, 0.0004137670330237597, 0.0013505973620340228, -0.015469745732843876, -0.002336473437026143, -0.0006220315699465573, -0.0016295455861836672, 0.0013810601085424423, 0.0032999941613525152, -0.0009973589330911636, 0.005552996415644884, 0.001235567033290863, 0.0006778818788006902, -0.001424250891432166, 0.007243710104376078, -0.0008796990150585771], [-0.08224498480558395, -0.030391985550522804, -0.07855059206485748, 0.5812728404998779, 0.016934487968683243, -0.014831733889877796, 0.3580564856529236, 0.006537673529237509, -0.41367265582084656, 0.005435696803033352, -0.020969228819012642, 0.3606567978858948, -0.007489989511668682, -0.47181960940361023, -0.015870023518800735, 0.006454195827245712, 0.044169675558805466, -0.2893775999546051, 0.050638508051633835, -0.03190414980053902, 0.0055535100400447845, -0.04031482711434364, 0.31323954463005066, 0.015114258043467999, 0.012866870500147343, 0.17078469693660736, -0.059578992426395416, -0.45410585403442383, 0.4033925533294678, -0.17958813905715942, -0.06014719977974892, 0.048126962035894394], [0.15296854078769684, 0.1571826934814453, -0.04246792942285538, 0.7057296633720398, -0.00975124817341566, 0.011539692990481853, 0.2328864336013794, -8.814511238597333e-05, -0.0046427990309894085, 0.432735800743103, 0.009254246950149536, -0.014483800157904625, 0.0005667248042300344, 0.3340356945991516, 0.001576678128913045, 0.0027376089710742235, -0.019644737243652344, -0.06619779765605927, 0.09840316325426102, 0.024110766127705574, -0.2639797329902649, -0.22006912529468536, -0.002938952762633562, 0.29919910430908203, -0.0075285849161446095, -0.11435044556856155, -0.11832449585199356, -0.3531237542629242, 0.20609217882156372, -0.14265885949134827, 0.06813271343708038, -0.7020794153213501], [0.015060498379170895, 0.011767013929784298, 0.004670648369938135, 0.002531276550143957, 0.0031084688380360603, -0.0025257866363972425, 0.013777525164186954, 0.0013221048284322023, -0.011283408850431442, -0.0014282960910350084, -0.006387100089341402, -0.025271980091929436, -0.0047341398894786835, -0.0075873686000704765, 0.0022086547687649727, -0.003107036929577589, -0.0026479170192033052, 0.018673792481422424, -0.006511232350021601, 0.0030844006687402725, -0.0005905064754188061, 0.016179829835891724, 0.03763643652200699, 0.00973418727517128, 0.0020180256105959415, -0.01947132870554924, 0.029241060838103294, 0.0013146543642506003, 0.012551945634186268, 0.0007819531601853669, 0.006067963317036629, -0.00833324808627367], [0.15952248871326447, 0.07667659968137741, -0.23337233066558838, -0.22438189387321472, 0.0052633932791650295, -0.006247346289455891, 0.6581911444664001, 0.0026187309995293617, 0.2231043577194214, -0.2814987003803253, -0.0013870353577658534, 0.2957271933555603, -0.008049274794757366, -0.035664577037096024, 0.0011640987358987331, -0.005958271212875843, 0.004546787589788437, -0.4974171221256256, -0.34981727600097656, -0.008918778970837593, 0.161484494805336, 0.036953795701265335, -0.10979272425174713, 0.1835678368806839, 0.008958866819739342, -0.0635560005903244, -0.049876175820827484, 0.11752266436815262, 0.05178871005773544, -0.05902243033051491, 0.058264877647161484, 0.1675572693347931], [0.01050266157835722, 0.0060325502417981625, -0.004250082653015852, -0.0016754482639953494, -0.0024512228555977345, -0.001359621761366725, 0.010392599739134312, 0.0003596982278395444, -0.003716131206601858, 0.0009285577107220888, 0.0016099215717986226, -0.016407914459705353, -0.01005613524466753, -0.014787131920456886, 0.0028981196228414774, -0.002106874482706189, -0.007429101038724184, 0.009396299719810486, -0.00532518420368433, 0.011397261172533035, -0.0002132998051820323, 0.0038620380219072104, 0.023138033226132393, -0.007242838852107525, 0.004907150752842426, -0.006836873013526201, 0.009558224119246006, -0.004511689767241478, 0.005068434868007898, -0.00022665702272206545, 0.0004962221719324589, 0.004591187462210655], [-0.05088132247328758, 0.06984016299247742, -0.03397463262081146, 0.3715897500514984, 0.023331250995397568, -0.025241093710064888, 0.3344872295856476, 0.003177932696416974, 0.11650105565786362, 0.008936365135014057, -0.025059353560209274, -0.18651312589645386, -0.01042216643691063, 0.6110470294952393, 0.0016392265679314733, -0.008712814189493656, 0.032845743000507355, 0.15489037334918976, 0.293136328458786, -0.029020823538303375, -0.024621376767754555, -0.0532815121114254, -0.21033251285552979, -0.07429800927639008, 0.02069905586540699, -0.13028888404369354, 0.09894294291734695, 0.621117889881134, -0.26625126600265503, -0.23042413592338562, 0.0654267817735672, -0.7026843428611755], [-0.008672409690916538, -0.014417623169720173, -0.007584665901958942, -0.003081568982452154, -0.008373862132430077, 0.0058454424142837524, 0.0007035268936306238, 0.0017270566895604134, -0.010817401111125946, 0.008772061206400394, 0.006137876305729151, 0.004716926254332066, -5.9663863794412464e-05, 0.01011689379811287, -0.00950913317501545, 0.0038157531525939703, 0.0018629166297614574, -0.004971592221409082, 0.002723223064094782, 0.007027835119515657, 0.006652587093412876, 0.0030466981697827578, -0.010133452713489532, -0.009633731096982956, -0.0030557012651115656, 0.006251355167478323, -0.009973742999136448, 0.0018736537313088775, -0.006049364805221558, 0.0016442949417978525, -0.009767327457666397, 0.01000539492815733], [0.006745376158505678, 0.0053021968342363834, 0.0055243708193302155, 0.006035300437361002, 0.010593956336379051, -0.012400532141327858, 0.007681768387556076, 0.0009724076953716576, 0.0025211803149431944, -0.0015821490669623017, -0.007808605208992958, -0.020747030153870583, -0.004951805807650089, -0.013977895490825176, 0.007026337087154388, -0.010924706235527992, -0.0013030628906562924, 0.012355356477200985, 0.0009520389721728861, -0.0028541218489408493, -0.013511023484170437, 0.0009537605801597238, 0.018293848261237144, 0.006395706906914711, 0.012757774442434311, -0.010729556903243065, 0.03616118058562279, -0.005309269297868013, 0.002710516331717372, -0.01736210472881794, -0.004206724464893341, -0.011351242661476135], [-0.011973973363637924, -0.006441555917263031, -0.024948416277766228, -0.009897880256175995, 0.005526372697204351, -0.006505781784653664, -0.022833243012428284, -0.00309026543982327, 0.014037380926311016, -0.0005797179182991385, -0.0014441785169765353, 0.046959757804870605, 0.0008798457565717399, 0.0030649248510599136, 0.002510873833671212, -0.004088148474693298, 0.007459173444658518, -0.018206289038062096, -0.012875622138381004, -0.012521635740995407, -0.008582524955272675, -0.05192343145608902, -0.045121822506189346, -0.02030433900654316, 0.0055411746725440025, 0.034247275441884995, -0.04657183215022087, -0.006893180776387453, -0.01952158287167549, 0.011842500418424606, 0.000346185959642753, 0.018269803375005722], [-1.0592114925384521, 0.808998167514801, -0.20870646834373474, 0.17843766510486603, -0.012825208716094494, 0.017472993582487106, 0.25797203183174133, 0.004173107445240021, -0.2561030983924866, -0.3514319658279419, 0.014508765190839767, 0.235291987657547, 0.012892909348011017, 0.17074532806873322, -0.0048829042352736, 0.013668862171471119, -0.025333736091852188, 0.26680102944374084, -0.01886410266160965, 0.018103033304214478, -0.137677401304245, -0.4306546151638031, 0.27166667580604553, -0.27544885873794556, -0.01718083582818508, -0.12823204696178436, -0.46714773774147034, 0.47538480162620544, -0.24369579553604126, 0.07283856719732285, -0.01784326136112213, -0.1671624332666397], [0.29906314611434937, 0.1418531984090805, -0.5969204306602478, -0.2268371433019638, -0.008861648850142956, 0.004078924655914307, -0.13281744718551636, -0.0049428739584982395, -1.305359959602356, -0.338905394077301, 0.009764397516846657, 0.7541408538818359, 0.0029590409249067307, 0.18953831493854523, -0.011740850284695625, 0.003336349269375205, 0.0021408183965831995, -0.31159138679504395, 0.36939290165901184, 0.012193442322313786, 0.14251333475112915, 0.17642256617546082, 0.3651573657989502, -0.23966486752033234, -0.0007916890899650753, 0.20749075710773468, 0.13261821866035461, 1.4237042665481567, -0.4143591523170471, 0.09653275460004807, 0.016047805547714233, 0.3404097259044647], [0.012935600243508816, 0.010167969390749931, 0.028342274948954582, 0.012612543068826199, 0.0008651904645375907, -0.0004268667835276574, 0.015212840400636196, 0.002484299708157778, -0.003116920590400696, -0.008396213874220848, -0.0015659366035833955, -0.054915957152843475, -0.0005842185928486288, -0.0061620986089110374, 0.0026481531094759703, 0.0049098776653409, -0.007831051014363766, 0.03313404321670532, 0.009651382453739643, 0.006058470346033573, -0.00081537856021896, 0.03470148891210556, 0.04020853340625763, 0.026831891387701035, -0.0017367221880704165, -0.03847944363951683, 0.03838961198925972, 0.0047064777463674545, 0.02401834726333618, -0.014784366823732853, 0.0006342650158330798, -0.020889483392238617], [0.06251493841409683, -0.18916691839694977, -0.09826882928609848, 0.5596520900726318, 0.03426714986562729, -0.048727478832006454, -0.08832798898220062, -0.0015498322900384665, 0.06777852773666382, -0.3294573724269867, -0.03062233328819275, -0.061903756111860275, -0.010410462506115437, 0.4061836302280426, 0.0007941508665680885, -0.020327916368842125, 0.05319095775485039, -0.08220569044351578, 0.07926994562149048, -0.06016943231225014, 0.46865779161453247, -0.3643605411052704, -0.1613924354314804, 0.0574791356921196, 0.04120374843478203, 0.0440681055188179, 0.027276992797851562, -0.1881178319454193, 0.07259660959243774, 0.0168901477009058, -0.0108374347910285, -0.510658323764801], [0.4610550105571747, -0.7800951600074768, -0.043477870523929596, 0.0075008985586464405, -0.002160025527700782, 0.0003359804686624557, -0.2612341344356537, -0.0018587176455184817, 0.12163563817739487, -0.23694463074207306, 0.0024036827962845564, -0.33909669518470764, 0.004463191609829664, -0.06583034247159958, -0.005703741684556007, 0.005408653058111668, 0.0011577483965083957, 0.38996726274490356, 0.13008540868759155, 0.005102989263832569, -0.2669195532798767, 0.07281453907489777, 0.04178615286946297, -0.1659039407968521, 0.001035156543366611, -0.05863746628165245, 0.1929996758699417, -0.1100701317191124, -0.018843529745936394, -0.04201551526784897, 0.08415786921977997, 0.07189738005399704], [-0.24443338811397552, 0.14024753868579865, 0.08302097767591476, 0.24116583168506622, -0.010769359767436981, 0.01055477000772953, 0.17938193678855896, -0.002002905122935772, 0.4412432014942169, 0.4700804352760315, 0.015687203034758568, -0.12601813673973083, 0.011048986576497555, 0.4518715739250183, -0.0003503522020764649, 0.007231953088194132, -0.01704217679798603, 0.45026859641075134, -0.8861464858055115, 0.010317962616682053, -0.048246387392282486, 0.23643438518047333, -0.17964790761470795, 0.14098067581653595, -0.009778468869626522, 0.06261586397886276, 0.15491704642772675, 0.04710688069462776, -0.17869888246059418, -0.19543872773647308, -0.05559731274843216, -0.26891425251960754], [0.013588132336735725, -0.15956826508045197, 0.5017901062965393, 0.11151300370693207, 0.008838372305035591, -0.012879826128482819, 0.06008158251643181, -0.0014127627946436405, -0.39028480648994446, 0.0683262050151825, -0.00450019771233201, 0.24926726520061493, -0.0050687058828771114, -0.06881798058748245, -0.0014316224260255694, -0.005351623985916376, 0.013555350713431835, -0.13977132737636566, -0.03882534056901932, -0.003593059256672859, 0.10352885723114014, -0.0687938779592514, 0.3102419972419739, 0.341595858335495, 0.00767041090875864, -0.012048508040606976, 0.2788366377353668, -0.12681002914905548, -0.3549387753009796, 0.0997825488448143, 0.16635087132453918, 0.09417594969272614], [-0.01055053062736988, -0.01067437045276165, -0.018067941069602966, -0.008535070344805717, -0.004389584995806217, 0.009164463728666306, -0.011986757628619671, -0.001797151635400951, 0.011928418651223183, 0.00576008902862668, 0.0018057456472888589, 0.032840795814991, 0.00511629693210125, 0.013396745547652245, -0.004324096255004406, 0.002475232118740678, 0.008263473398983479, -0.01919197104871273, -0.002596677280962467, -0.005147433839738369, 0.0023718061856925488, -0.016287019476294518, -0.02364705316722393, -0.005221275612711906, -0.010331662371754646, 0.01392671000212431, -0.031054092571139336, 0.000684825296048075, -0.007440246641635895, 0.0210711769759655, 0.006273642182350159, 0.0067014265805482864], [0.429788738489151, -0.6432222127914429, 0.05095883086323738, -0.3447067141532898, 0.013288317248225212, -0.0075797634199261665, -0.0031895232386887074, -0.0009462551097385585, -0.089244544506073, 0.2892162799835205, -0.015431319363415241, 0.04965907707810402, -0.0020513171330094337, 0.371547132730484, 0.0032727534417062998, -0.006025336682796478, 0.019713126122951508, -0.5274346470832825, 0.33569300174713135, -0.028589684516191483, 0.19831621646881104, -0.3434734642505646, -0.049853406846523285, 0.0010131337912753224, 0.00036726403050124645, 0.28002166748046875, 0.28057247400283813, 0.08000601828098297, 0.05629869922995567, -0.2963564693927765, 0.0621943436563015, 0.1422683298587799], [2.6137657165527344, -1.8763688802719116, -0.2733564078807831, 0.11316327005624771, -0.00862942449748516, 0.009090167470276356, 0.17116883397102356, -0.00017228620708920062, -0.6923578977584839, -0.007324499543756247, 0.008383084088563919, 0.15941296517848969, 0.0016999172512441874, 0.3755621016025543, 0.0003226102562621236, 0.006516327615827322, -0.02032560296356678, 0.5037676095962524, 0.3186902701854706, 0.021480167284607887, 0.0359390527009964, 0.9259479641914368, 0.15339425206184387, 0.007424928247928619, -0.007551560178399086, 0.3256743848323822, 0.682030975818634, 0.1969587504863739, 0.20478084683418274, 0.17590747773647308, -0.06490541249513626, -0.4090975821018219], [0.7005414962768555, 0.08777160197496414, 0.2900899350643158, -0.2731083333492279, 0.0017225188203155994, -0.006710391491651535, -0.06253865361213684, -0.0022221924737095833, 0.3840036988258362, 0.0761106014251709, -0.00262103951536119, -0.1659497320652008, 0.0015588498208671808, -0.2161928415298462, -0.003910169005393982, 0.00383017142303288, 0.015249175019562244, 0.10267139226198196, -0.44407495856285095, -0.00619186507537961, -0.27825668454170227, -0.053993310779333115, 0.08721709996461868, 0.7067219018936157, 0.005010940134525299, -0.13332603871822357, -1.0589873790740967, 0.4302634000778198, 0.15700139105319977, -0.08624022454023361, -0.13446511328220367, -0.01880115643143654], [-0.33509233593940735, -0.4651739299297333, 0.07198382169008255, 0.27869489789009094, -0.0036929382476955652, 0.0053764511831104755, 0.46259933710098267, 0.002963470993563533, 0.4993453919887543, 0.36966702342033386, 0.0020476735662668943, -0.18331590294837952, 0.0022579790093004704, 0.41169610619544983, -0.0015703481622040272, -2.935494740086142e-05, -0.007501708343625069, 0.10850312560796738, 0.8082987666130066, -0.0010912315919995308, -0.09759801626205444, 0.054476168006658554, -0.045152582228183746, -0.3230096399784088, -0.005908494349569082, 0.14289821684360504, 0.2275104820728302, 0.10950486361980438, 0.2780362665653229, 0.15817035734653473, -0.005770927295088768, 0.20935015380382538], [-0.29880884289741516, -0.5032767653465271, 0.05393153801560402, 0.09690510481595993, 0.004033809527754784, 0.0042325654067099094, 0.08928873389959335, 0.0048696743324398994, 0.004203661810606718, -0.0791499987244606, 0.006628582254052162, -0.07947317510843277, 0.008516988717019558, -0.0010341841261833906, -0.01238755602389574, 0.0026848013512790203, -0.015488597564399242, -0.32922667264938354, 0.0729055181145668, 0.003347518853843212, 0.07067238539457321, -0.017876354977488518, -0.06046097353100777, 0.0764668732881546, -8.110362250590697e-05, -0.13430894911289215, 0.07225760817527771, -0.09375454485416412, -0.08653566986322403, -0.056648656725883484, -0.07670116424560547, -0.023042108863592148], [-0.3071467876434326, -0.0833883136510849, 0.01632019504904747, -0.022272057831287384, -0.005512547213584185, 8.814087777864188e-06, 0.08444471657276154, 0.0008012154721654952, -0.11896511167287827, 0.19903473556041718, 0.006044634152203798, 0.1787809133529663, 0.011362574063241482, -0.07583574950695038, -0.0008807850535959005, 0.004684275947511196, -0.01119000930339098, -0.0774272009730339, 0.13742958009243011, -0.0005769019480794668, -0.07044763118028641, -0.0033847044687718153, -0.06744508445262909, -0.1343744546175003, -0.0035798505414277315, -0.3233398199081421, 0.10624107718467712, -0.026521872729063034, -0.0843682661652565, -0.05712718516588211, 0.24952305853366852, 0.11377870291471481], [0.08892007172107697, -0.1684533655643463, 0.08117857575416565, 1.1121504306793213, 0.01852320320904255, -0.021701259538531303, -0.3104408383369446, -0.001085361116565764, 0.14289960265159607, 0.6356890201568604, -0.021422382444143295, -0.08637198805809021, -0.008118106052279472, 0.5146631598472595, 0.0036028402391821146, -0.013917728327214718, 0.025381404906511307, 0.34736770391464233, -0.08785880357027054, -0.03374261036515236, -0.04406287148594856, 0.3200257122516632, 0.19704720377922058, 0.1557580679655075, 0.017203737050294876, 0.3163944184780121, -0.02675725519657135, 0.03349531814455986, -0.19786730408668518, 0.07082708925008774, 0.0665360540151596, 0.45805296301841736], [0.00748849380761385, 0.01495034247636795, -0.1344587206840515, -0.15007880330085754, 0.016058336943387985, -0.02689199335873127, -0.11313969641923904, -0.0002303765359101817, -0.02604752406477928, 0.000707710743881762, -0.014158958569169044, -0.0029289964586496353, -0.0011527396272867918, -0.017393292859196663, 0.001553781214170158, -0.0056551434099674225, 0.038431063294410706, 0.02817729115486145, -0.3166123628616333, -0.04022606462240219, -0.0038996690418571234, -0.0005829075817018747, 0.022604359313845634, -0.10451679676771164, 0.016639193519949913, 0.011912873946130276, -0.027075152844190598, -0.3090493381023407, -0.37992238998413086, 0.016759086400270462, 0.04992765560746193, 0.007504744455218315], [-0.0861082375049591, -0.15384246408939362, -0.15003357827663422, -0.1236167624592781, 0.0005848994478583336, -0.001894551096484065, -0.06818783283233643, 0.001371400780044496, -0.03209587559103966, 0.13782131671905518, -0.0016891054110601544, 0.1282186657190323, -0.003097236854955554, -0.11888688802719116, 0.005610738415271044, -0.004629156552255154, -0.0033259184565395117, -0.32923439145088196, -0.18070866167545319, 0.0022314798552542925, 0.054800789803266525, -0.07210321724414825, -0.0031109980773180723, 0.09788858145475388, 0.0020886161364614964, -0.007446334231644869, -0.00519435154274106, -0.15255935490131378, -0.4731149673461914, 0.11418606340885162, 0.15387043356895447, 0.09262079745531082], [0.14814430475234985, -0.18453392386436462, -0.07903517037630081, -0.059452448040246964, 0.002001663902774453, 0.00012622323993127793, -0.0926094800233841, -0.0021911028306931257, 0.12767232954502106, -0.05771283432841301, -0.0010650636395439506, 0.06569545716047287, -0.004105638712644577, 0.052682194858789444, 0.0009162577334791422, -0.0017396336188539863, -0.008263260126113892, -0.07884400337934494, -0.11064761877059937, 0.004279219079762697, -0.1520700454711914, 0.06813086569309235, -0.07093722373247147, -0.16918811202049255, 0.003457915037870407, 0.10710851103067398, 0.23972900211811066, -0.1064828485250473, -0.0716521143913269, -0.2471216320991516, -0.07288744300603867, 0.0860457494854927], [0.07708171755075455, -0.004070017021149397, -0.07209140062332153, -0.17874649167060852, -0.016470249742269516, 0.017808010801672935, 0.05964795872569084, -0.002867873292416334, -0.03163588047027588, 0.09223304688930511, 0.016937391832470894, -0.029505738988518715, 0.005288308020681143, 0.023604493588209152, 0.0016900073969736695, 0.012433555908501148, -0.021456697955727577, 0.112489253282547, -0.03865686058998108, 0.029825489968061447, -0.12921103835105896, 0.05547602102160454, 0.01425614207983017, 0.07060254365205765, -0.016896039247512817, 0.0792580172419548, -0.007396777160465717, 0.11575660854578018, -0.20361541211605072, -0.2650981545448303, -0.10874468088150024, 0.09513326734304428], [-0.014816057868301868, -0.0013976383488625288, -0.006474493537098169, 0.006570438388735056, -0.002195315668359399, 0.0028813029639422894, 0.006976275704801083, -0.00013990580919198692, -0.0012019864516332746, -0.007622574456036091, 0.0018797070952132344, 0.013399539515376091, 0.00039383480907417834, 0.016228821128606796, 5.0127500799135305e-06, 0.0008941355044953525, -0.0028520713094621897, 0.0006940098246559501, 0.007533533498644829, 0.0036327962297946215, 0.0029293056577444077, -0.004493362735956907, -0.007839525118470192, -0.0012285715201869607, -0.0020749985706061125, 0.0019082227954640985, -0.0021973634138703346, 0.018986430019140244, 0.004557999782264233, -0.0013929852284491062, -0.0005308114923536777, 0.003750907490029931], [-0.01656685769557953, -0.0028407792560756207, -0.011898191645741463, 0.0017621357692405581, -0.0025277971290051937, 0.002152236644178629, 0.004906834103167057, -0.00020304691861383617, -0.0015417224494740367, -0.0045738862827420235, 0.0023542826529592276, 0.02255191095173359, 0.0007115876069292426, 0.01711747795343399, -0.00018062007438857108, 0.0014755043666809797, -0.0009151514968834817, -0.006126663647592068, 0.0011691348627209663, 0.0019236031221225858, 0.003785080509260297, -0.011135537177324295, -0.01287494320422411, -0.004293554462492466, -0.0021507912315428257, 0.008648962713778019, -0.009473234415054321, 0.01454052235931158, -0.0007271302747540176, 0.0009458603453822434, -0.0007931675645522773, 0.00590798445045948], [-0.23866480588912964, -0.4597761631011963, -0.04767506569623947, -0.4321534037590027, -0.0027899162378162146, 0.008213330060243607, -1.1875687837600708, -0.0022581403609365225, -0.5794925093650818, 0.09916791319847107, 0.0030237920582294464, -0.5134494304656982, 0.005684445612132549, -0.07255718857049942, 0.0027816190849989653, 0.001970469020307064, -0.006384183187037706, 0.12682923674583435, -0.008180922828614712, 0.0033650409895926714, 0.026332197710871696, 0.09394960850477219, 0.3320779800415039, -0.13498210906982422, -0.007013493683189154, -0.020644184201955795, -0.07896549999713898, -0.006222918163985014, 0.2911452054977417, -0.2639971077442169, -0.20183300971984863, -0.25674718618392944], [0.00010783691686810926, 2.4973682229756378e-05, 0.0003835459938272834, 0.0002075316006084904, -2.4071914594969712e-05, 3.624781675171107e-05, 0.0001416771992808208, -4.212048224871978e-06, 0.0002345343236811459, 8.158444688888267e-05, 1.9058108591707423e-05, -2.303389373992104e-05, -4.006303697678959e-06, 9.44522034842521e-05, 1.0262800060445443e-05, 2.0365157524793176e-06, -4.381193866720423e-05, 0.00014512334018945694, 0.001242404105141759, 5.389197758631781e-05, -4.140330202062614e-05, 6.761811528122053e-05, 4.9771901103667915e-05, 0.00012131343100918457, -2.3767595848767087e-05, 1.1859191317853401e-06, -4.337474092608318e-05, 0.0009490580414421856, 0.0008620167500339448, -3.675741311326419e-07, -0.0001308007340412587, -1.9987041014246643e-05], [0.1569061428308487, 0.027072807773947716, -0.037311818450689316, -0.11439502239227295, 0.011547721922397614, -0.018984008580446243, -0.2122240960597992, -0.0034423447214066982, 0.1052730530500412, 0.01427905261516571, -0.00812616292387247, -0.20684805512428284, 0.003623176598921418, -0.07958447188138962, -0.00249916547909379, -0.004009181633591652, 0.0209502000361681, 0.1908571869134903, -0.2792612612247467, -0.022609224542975426, -0.06563403457403183, -0.0060224165208637714, -0.0011468409793451428, -0.19094665348529816, 0.012072389014065266, -0.10686881840229034, 0.10597031563520432, -0.18529631197452545, -0.1683187037706375, -0.10280977189540863, -0.01040735561400652, 0.062530018389225], [-0.14857177436351776, 0.1669299602508545, 0.03040861338376999, -0.021706473082304, -0.0033543314784765244, 0.0002228405064670369, -0.2806755304336548, 8.197363786166534e-05, -0.060077156871557236, 0.03789346665143967, 0.004810700658708811, 0.005047805141657591, 0.006620005238801241, -0.0034426969941705465, -0.003291741944849491, 0.00031338780536316335, -0.008788825944066048, -0.19167903065681458, -0.194230318069458, 1.8998905943590216e-05, 0.27409979701042175, 0.0442490428686142, 0.22463472187519073, 0.12861081957817078, -0.0018353242194280028, -0.06562171876430511, -0.07005578279495239, -0.1581423133611679, -0.4329717755317688, 0.11161372065544128, 0.11997200548648834, -0.030880926176905632], [-0.012067761272192001, -0.0011681306641548872, -0.005385615397244692, 0.0034560125786811113, -0.0016038906760513783, 0.0020721813198179007, 0.004270891658961773, -9.979434253182262e-05, 0.0004142648831475526, -0.005263330414891243, 0.0013721039285883307, 0.011194483377039433, 0.0003044255718123168, 0.01192531455308199, 4.4510961743071675e-06, 0.0006746712024323642, -0.0019617020152509212, -0.0006965183420106769, 0.00495454017072916, 0.0024510310031473637, 0.0027034261729568243, -0.0036427383311092854, -0.005930215120315552, 0.0007118137436918914, -0.001515938201919198, 0.0028474326245486736, 1.2818385584978387e-05, 0.014970455318689346, 0.002696816809475422, -0.0005080399569123983, -0.0009061205782927573, 0.001936709857545793], [-0.19026730954647064, 0.05313911288976669, -0.08931883424520493, -0.07789652794599533, 0.026162127032876015, -0.0300906952470541, -0.057977914810180664, 0.0007366851205006242, -0.16524991393089294, 0.06533682346343994, -0.02524433843791485, 0.08529175817966461, -0.008448432199656963, -0.12728434801101685, 0.00484128762036562, -0.013667452149093151, 0.03763161227107048, -0.17167380452156067, -0.24994917213916779, -0.04107315093278885, 0.06360771507024765, 0.15355297923088074, 0.08841884136199951, -0.08551109582185745, 0.02734120562672615, 0.18334905803203583, -0.4626171290874481, 0.1393430531024933, 0.3369390070438385, -0.13354726135730743, -0.1447940170764923, 0.018804406747221947], [-0.0014436105266213417, 0.00018114034901373088, 0.002061648527160287, 0.0020121245179325342, -0.00011583026935113594, 0.00026729717501439154, 0.0012276085326448083, 2.0210294678690843e-05, 0.0018648054683580995, -0.00047347659710794687, 8.801453077467158e-05, 0.0008815499022603035, -1.9099041310255416e-05, 0.0003856011026073247, -3.3040164453268517e-06, 2.7972539101028815e-05, -0.0004570906748995185, 0.0012218992924317718, 0.006850330159068108, 0.0005194531986489892, -0.0006522935582324862, 0.00045613053953275084, -0.00022315837850328535, 0.0015205179806798697, -0.00011881475074915215, -0.0006639563944190741, 0.0009691969607956707, 0.00816420279443264, 0.008411889895796776, 7.376301800832152e-05, -0.0005983407609164715, -0.00028691740590147674], [0.015125397592782974, 0.14403994381427765, -0.05158498138189316, 0.06528394669294357, -0.007346360478550196, 0.007873328402638435, -0.042110271751880646, 0.0025054472498595715, 0.2565150856971741, -0.07859703153371811, 0.008981429040431976, -0.021650828421115875, 0.003614632412791252, -0.12480537593364716, -0.004186335019767284, 0.009939413517713547, -0.008505652658641338, 0.01756887137889862, 0.01113895233720541, 0.0037486148066818714, -0.06759913265705109, 0.010557830333709717, -0.16941969096660614, -0.03599189594388008, -0.006851481273770332, 0.17406506836414337, 0.06735339015722275, -0.08021210134029388, 0.020233377814292908, 0.02947215363383293, -0.09856194257736206, 0.01834445260465145], [0.00011239213199587539, -0.0006192697328515351, 0.0014666356146335602, 0.0014936678344383836, -0.00011269954848103225, 0.0001922441297210753, 0.0009048011852428317, 6.344338544295169e-06, -3.829398701782338e-05, -5.0170936447102576e-05, 8.927594171836972e-05, -0.00022872636327520013, 2.579845101990941e-07, 0.0006147865206003189, -6.238886726350756e-06, 3.763648419408128e-05, -0.00031661763205192983, 0.0009075554553419352, 0.005056038033217192, 0.00034615801996551454, -0.0002272587298648432, 0.0006547377561219037, -0.0005650019156746566, 0.0013881330378353596, -0.00011076428927481174, -0.00041787337977439165, 0.0005276406882330775, 0.003845594823360443, 0.006743809208273888, -0.00030387548031285405, -0.0008263459312729537, 4.5082673750584945e-05], [-0.004560041707009077, 0.0009942679898813367, 0.0028857209254056215, 0.004973006900399923, -0.0005707658128812909, 0.001015298767015338, 0.0025297338142991066, 7.556417131127091e-06, 0.0015078582800924778, -0.001948714256286621, 0.0004765861085616052, 0.001436746446415782, 9.591122216079384e-05, 0.004387716297060251, -1.5372286725323647e-05, 0.00020917622896376997, -0.0014374273596331477, 0.0023997314274311066, 0.008726069703698158, 0.0015692643355578184, 0.00024820564431138337, 0.0015009220223873854, -0.000517095613759011, 0.0018101558089256287, -0.0005769104463979602, -0.0015393337234854698, 0.0012689795112237334, 0.014166048727929592, 0.00864163227379322, -0.001253511174581945, -0.0008583974558860064, -0.00043791159987449646], [-0.021353745833039284, 0.0007955622277222574, -0.024606430903077126, -0.0055886441841721535, -0.0009790483163669705, -0.0013436967274174094, -0.0012085860362276435, -0.00012861526920460165, -0.005847117863595486, -0.0006329961470328271, 0.0012269392609596252, 0.0374072901904583, 0.0011990056373178959, 0.016651244834065437, -0.0006941156461834908, 0.0018250452121719718, 0.004294706042855978, -0.014879604801535606, -0.0082295136526227, -0.0030084624886512756, 0.0028809295035898685, -0.025164255872368813, -0.021802060306072235, -0.013786456547677517, -6.795004446757957e-05, 0.01920984871685505, -0.021269218996167183, 0.00842356774955988, -0.010495973750948906, 0.005778132006525993, 0.0004426258383318782, 0.014704766683280468], [0.020107822492718697, 0.3442087769508362, 0.04464874789118767, 0.18628011643886566, 0.026950156316161156, -0.027691371738910675, 0.007124791853129864, 0.0029496632050722837, -0.03137684240937233, -0.44077515602111816, -0.024285204708576202, 0.14916644990444183, -0.009913362562656403, -0.22069479525089264, -0.0016473300056532025, -0.010122531093657017, 0.04288507625460625, 0.26104986667633057, -0.06522230803966522, -0.049397844821214676, 0.03539535030722618, 0.08916351199150085, -0.03367732837796211, 0.019064949825406075, 0.02665458433330059, 0.21717604994773865, -0.021288907155394554, -0.22200335562229156, 0.2783532440662384, -0.3621006906032562, -0.03728656470775604, -0.19969971477985382], [0.3140510320663452, 0.09624697268009186, -0.04738878086209297, -0.07335203140974045, -0.002017334336414933, -0.0011998069239780307, -0.09610825031995773, -0.0013008315581828356, 0.23716285824775696, 0.1620854288339615, 0.007540557533502579, -0.12952333688735962, -0.00019462451746221632, -0.19566236436367035, -0.001389727578498423, -0.004301577806472778, -0.0037868956569582224, -0.48136937618255615, -0.6644628047943115, 0.008159351535141468, 0.09474070370197296, -0.16418196260929108, 0.30875450372695923, -0.3232126235961914, 0.0033831889741122723, -0.02954927273094654, -0.056794412434101105, 0.07090094685554504, 0.09629406034946442, -0.15879471600055695, -0.07132021337747574, -0.3394213318824768], [-0.01950802281498909, -0.005661606788635254, -0.030561238527297974, -0.0040466999635100365, -0.0031023742631077766, 0.0017583296867087483, 0.0026476688217371702, -0.0002663854684215039, -0.013306387700140476, -0.00853804126381874, 0.002928747097030282, 0.042762305587530136, 0.0016802559839561582, 0.024208957329392433, -0.0009302509133704007, 0.002514188876375556, 0.0013922996586188674, -0.013556075282394886, -0.006498985458165407, 0.0005021911929361522, 0.005681478884071112, -0.026622965931892395, -0.029414037242531776, -0.017563313245773315, -0.0021596981678158045, 0.01959466002881527, -0.027624106034636497, 0.010681664571166039, -0.010424716398119926, 0.008978862315416336, 0.0031766584143042564, 0.02290295995771885], [-0.10006298869848251, 0.020248176530003548, -0.04781763255596161, 0.04685736820101738, -0.003764565335586667, 0.003612819127738476, -0.021275566890835762, 0.00019928906112909317, -0.23279792070388794, -0.5682685971260071, 0.0018642689101397991, -0.15635062754154205, 0.0029637853149324656, -0.034866731613874435, -0.0023058645892888308, -3.4628687899385113e-06, -0.0015365808503702283, 0.04653272405266762, -0.10851224511861801, 0.005198113154619932, 0.06741558760404587, 0.104219950735569, -0.14183080196380615, -0.29636403918266296, -0.004210672806948423, -0.039776671677827835, 0.06758105009794235, -0.12249603867530823, -0.052941132336854935, 0.14339430630207062, 0.08618759363889694, -0.22319866716861725], [0.33626028895378113, -0.4237941801548004, -0.1260892152786255, -0.05538492277264595, -0.001863409299403429, -0.000915234733838588, -0.22309274971485138, -0.002736948663368821, -0.4231119155883789, -0.17064519226551056, 0.0011787590337917209, -0.13516157865524292, 0.0006901653832755983, 0.03981525078415871, 0.005477620754390955, -0.0010448815301060677, -0.0024517744313925505, 0.16302531957626343, -0.07955814898014069, 0.0046626548282802105, -0.19070838391780853, 0.3750772774219513, -0.08343008160591125, -0.13706862926483154, 0.00010902393114520237, -0.02137613855302334, 0.07588386535644531, -0.037416357547044754, -0.16677428781986237, 0.01277823094278574, -0.002299116924405098, 0.0995112955570221], [0.05143827944993973, 0.16740910708904266, -0.02272106148302555, -0.1132097840309143, 0.01200029719620943, -0.01668614149093628, -0.13038939237594604, 0.0023411100264638662, 0.013890618458390236, 0.035499025136232376, -0.009339175187051296, 0.015795135870575905, -0.0032328658271580935, -0.11177057772874832, -0.0014315019361674786, -0.0036572024691849947, 0.02076634205877781, 0.0077077411115169525, -0.29874637722969055, -0.021974237635731697, -0.05666832998394966, -0.002019602805376053, 0.04214915633201599, -0.1568714827299118, 0.011173965409398079, -0.06964646279811859, -0.012058421038091183, -0.17719772458076477, -0.232574924826622, -0.08242756128311157, 0.04273781180381775, -0.05971009284257889], [0.03843644633889198, -0.1318625509738922, -0.15910302102565765, -0.11480787396430969, -0.009488435462117195, 0.009324543178081512, -0.11460112035274506, 5.5472668464062735e-05, -0.07565660029649734, -0.10065074265003204, 0.009226914495229721, -0.1557045727968216, 0.0035299828741699457, 0.009630275890231133, -0.00011352659203112125, 0.007732645142823458, -0.011329356580972672, 0.1400754600763321, -0.0369703583419323, 0.013277024962008, -0.180834099650383, 0.06352979689836502, -0.054352205246686935, -0.3578833341598511, -0.0071493834257125854, -0.19171518087387085, 0.02290377952158451, -0.0071234870702028275, 0.11249658465385437, -0.11589902639389038, 0.09936115145683289, 0.00164554244838655], [-0.013184905052185059, -2.7757236239267513e-05, -0.001973889535292983, 0.007310051470994949, -0.0017775549786165357, 0.002334819408133626, 0.005771452561020851, -0.00011223716865060851, 9.234332537744194e-05, -0.0051092361100018024, 0.0015330442693084478, 0.00992324948310852, 0.0003497860161587596, 0.01351857278496027, -5.414488259702921e-05, 0.0007244364824146032, -0.002371084177866578, 0.0003362380957696587, 0.008700729347765446, 0.0028747757896780968, 0.0023734907153993845, -0.003268497297540307, -0.005872816313058138, -0.0006983855273574591, -0.001690326607786119, 0.0009167707175947726, -0.0017409641295671463, 0.01948549970984459, 0.007217522244900465, -0.001866383128799498, -0.0005918755196034908, 0.002096079057082534], [-0.39261534810066223, 0.7259495258331299, -0.014024442993104458, 0.18715721368789673, 0.02085830457508564, -0.020030474290251732, 0.06842301040887833, 0.002117854543030262, 0.054611653089523315, -0.16498656570911407, -0.0202941857278347, 0.03406872972846031, -0.01047633495181799, -0.19618453085422516, -0.0012479203287512064, -0.011946424841880798, 0.034925881773233414, 0.10723910480737686, -0.15747720003128052, -0.04077582433819771, -0.06380968540906906, -0.21567443013191223, -0.17943082749843597, 0.10771998763084412, 0.01780133694410324, -0.32281264662742615, -0.35240495204925537, -0.10339920967817307, -0.055134858936071396, 0.16234074532985687, 0.12828856706619263, 0.007001211401075125], [0.0520733967423439, -0.029544886201620102, 0.16916699707508087, -0.027326803654432297, 0.05765240639448166, -0.0664394348859787, -0.09849903732538223, 0.0016528612468391657, -0.1787051260471344, -0.30767491459846497, -0.05884891748428345, 0.1644415408372879, -0.03234757483005524, 0.04343465343117714, 0.0034611369483172894, -0.04590851813554764, 0.06810347735881805, -0.24044272303581238, 0.2536473870277405, -0.06589143723249435, 0.12644647061824799, 0.0724925622344017, -0.1780189722776413, 0.4110572934150696, 0.05774666368961334, 0.13598725199699402, 0.2025403082370758, -0.140093132853508, -0.2610342800617218, -0.03723670914769173, 0.03713642805814743, 0.07111804187297821], [-0.06413906812667847, -0.005759042222052813, 0.05985298380255699, 0.05835086479783058, -0.0004339412262197584, 0.002934885211288929, 0.014879235066473484, 0.0042396411299705505, 0.05357188731431961, -0.1754385083913803, -0.0012282185489311814, 0.19612179696559906, -0.0019534628372639418, -0.1659807562828064, -0.005865263752639294, -0.0006083161570131779, 0.004468313418328762, 0.038380369544029236, 0.13095413148403168, -0.0006594235892407596, -0.026949215680360794, 0.05974538251757622, 0.051260557025671005, 0.10763150453567505, 0.0049138180911540985, -0.04204082489013672, 0.14100979268550873, 0.01117379404604435, -0.014793237671256065, 0.061029382050037384, 0.04989838972687721, -0.02317052334547043], [-0.39626964926719666, -0.3209629952907562, -0.18511301279067993, -0.010828875936567783, 0.020529914647340775, -0.018572991713881493, 0.316651314496994, 0.002824255730956793, 0.06205633655190468, 0.18227125704288483, -0.0183552373200655, 0.1152758002281189, -0.008771705441176891, 0.4399867653846741, 0.002100567799061537, -0.008699428290128708, 0.032449450343847275, -0.2181525081396103, -0.017001701518893242, -0.032423797994852066, 0.07737661898136139, -0.51320481300354, -0.15206775069236755, -0.3840387463569641, 0.013014225289225578, 0.4660128355026245, 0.021010253578424454, 0.07935058325529099, -0.6081109046936035, -0.07682299613952637, 0.011657566763460636, 0.11662423610687256], [0.2803015410900116, 0.34161055088043213, 0.04185190796852112, -0.2177814096212387, 0.012314061634242535, -0.009455086663365364, -0.09350989013910294, -0.0010681245476007462, -0.18498356640338898, -0.22599628567695618, -0.011881226673722267, -0.15176986157894135, -0.0012177492026239634, -0.017832867801189423, -0.0004264641902409494, -0.007520128972828388, 0.015260315500199795, 0.4576745331287384, -0.39387598633766174, -0.019110238179564476, 0.024498814716935158, 0.11951883882284164, -0.08056619763374329, -0.18608808517456055, 0.007518784608691931, -0.13024039566516876, -0.16149471700191498, -0.10279157012701035, -0.05714863911271095, -0.34175097942352295, -0.04624661058187485, -0.1458139270544052], [0.03996126353740692, 0.21502959728240967, -0.06551667302846909, -0.05596156790852547, 0.0013589723967015743, -0.001403674017637968, -0.04495098441839218, 0.0004616279329638928, -0.08323201537132263, -0.10895433276891708, -0.0021529882214963436, -0.15885129570960999, 0.0028363147284835577, -0.026130810379981995, -0.0024764875415712595, -0.0012363097630441189, 0.0029223107267171144, 0.21460972726345062, -0.09712762385606766, -0.0017799575580284, -0.08826886117458344, 0.05933545529842377, -0.07424314320087433, -0.1403670310974121, 7.943078526295722e-05, -0.18019390106201172, -0.017814625054597855, -0.07064677774906158, -0.10580813884735107, -0.17213328182697296, 0.05175596848130226, 0.05228247866034508], [-0.23644037544727325, -0.1138647198677063, -0.09795566648244858, -0.10118220001459122, 0.046030208468437195, -0.058988045901060104, -0.022462300956249237, -0.0016084096860140562, 0.13772854208946228, 0.15903210639953613, -0.04593876004219055, 0.1391768455505371, -0.020497286692261696, 0.11987215280532837, 0.003154042875394225, -0.02767360210418701, 0.06279115378856659, -0.16091105341911316, -0.01007642038166523, -0.05859515070915222, -0.17921887338161469, 0.046524856239557266, 0.07928744703531265, 0.031583383679389954, 0.04503290727734566, 0.22262248396873474, 0.13848097622394562, 0.031014150008559227, 0.025619374588131905, 0.2747724950313568, 0.065680593252182, -0.016944799572229385]], "rec.bias_ih_l0": [0.6463300585746765, 0.2492956966161728, -0.3089659810066223, -1.9145387411117554, -0.008902352303266525, -0.001975995022803545, -1.905261516571045, -0.0028341689612716436, 0.4014666676521301, -1.5281982421875, -0.006343097425997257, 0.17763154208660126, -0.010450840927660465, -1.2270749807357788, -0.010873766615986824, -0.011436405591666698, 0.007072432432323694, -1.9058334827423096, -1.9286845922470093, 0.006233586464077234, -0.23548755049705505, -0.33097437024116516, 0.3794461786746979, 0.08808077871799469, -0.010547956451773643, -0.009503199718892574, 0.29455503821372986, -2.1920723915100098, 0.11391974985599518, -0.31319761276245117, 0.12610888481140137, -1.7343429327011108, 0.1975918710231781, -0.0484861396253109, 0.7952094078063965, 1.9465245008468628, -0.009023291058838367, -0.0019263839349150658, 2.06750750541687, -0.002556687919422984, 0.15324409306049347, 1.7378978729248047, -0.006443536374717951, 0.3737632930278778, -0.010158328339457512, 1.4709275960922241, -0.010021954774856567, -0.01090327836573124, 0.0072257425636053085, 2.2152247428894043, 2.6226141452789307, 0.0059423320926725864, 0.20124174654483795, 0.09966138005256653, -0.045288652181625366, 0.5070182085037231, -0.010312005877494812, -0.023977387696504593, 0.2079576849937439, 2.307713031768799, 0.7938501834869385, 0.45628565549850464, 0.11960511654615402, 1.8771388530731201, -0.2000199556350708, 0.4264731705188751, -0.29821255803108215, -0.011805085465312004, 0.004597837571054697, -0.009913918562233448, -0.03938356041908264, 0.0006481712916865945, -0.03923317417502403, 0.05268500745296478, -0.005770822986960411, -0.2332608997821808, 0.0005812000017613173, 0.0769791230559349, -0.0018183462088927627, -0.0011730790138244629, 0.016262957826256752, -0.007753029465675354, -0.031136229634284973, -0.02069239132106304, 0.0417947880923748, -0.0667315423488617, -0.19812795519828796, -0.171517476439476, 0.005236609373241663, 0.004840531852096319, 0.13101494312286377, -0.20319868624210358, 0.08285875618457794, -0.07914818823337555, 0.032958321273326874, 0.04396436735987663, 0.7800883054733276, 0.5631545782089233, 0.120030976831913, 0.38496389985084534, -0.008689460344612598, -0.0017933784984052181, -0.2824452817440033, -0.002834432991221547, 0.5393645167350769, 0.49252942204475403, -0.006150440778583288, -0.4199087619781494, -0.01040467619895935, 0.24343733489513397, -0.010845226235687733, -0.011377224698662758, 0.007210469804704189, -0.03580576553940773, -0.02536911703646183, 0.006428163032978773, 0.08271164447069168, 0.310947448015213, 0.42031073570251465, 0.31054434180259705, -0.010439224541187286, -0.13080130517482758, -0.555529773235321, 0.4114201068878174, 0.5385094881057739, -0.05604516714811325, 0.13890555500984192, 0.30728837847709656], 